tree
version=v3
num_class=1
num_tree_per_iteration=1
label_index=0
max_feature_idx=44
objective=fair
feature_names=base_date_month base_date_day base_date_dayofweek Section/Products 33_Sector(Code) 17_Sector(Code) Size_Code_(New_Index_Series) IssuedShareEquityQuote_AccountingStandard IssuedShareEquityQuote_IssuedShare EndOfDayQuote_Open EndOfDayQuote_High EndOfDayQuote_Low EndOfDayQuote_Close EndOfDayQuote_ExchangeOfficialClose EndOfDayQuote_Volume EndOfDayQuote_CumulativeAdjustmentFactor EndOfDayQuote_PreviousClose EndOfDayQuote_PreviousExchangeOfficialClose EndOfDayQuote_ChangeFromPreviousClose EndOfDayQuote_PercentChangeFromPreviousClose EndOfDayQuote_VWAP MACD RSI BB_upper BB_lower EMA_20 return_10 return_20 return_30 volatility_10 volatility_20 volatility_30 MA_gap_10 MA_gap_20 MA_gap_30 EMA_28 return_14 return_28 return_42 volatility_14 volatility_28 volatility_42 MA_gap_14 MA_gap_28 MA_gap_42
feature_infos=[1:12] [1:31] [0:4] [0:4] [0:32] [0:16] [0:5] [0:3] [-0.2403022846628651:12.692003585108832] [-0.78397671002060354:26.677197646956778] [-0.78524957059093625:26.400517441924016] [-0.78272325304894497:26.970907791190648] [-0.78386961681239897:26.681198923372488] [-0.78225394413843918:26.189926066404411] [-0.18523906971802739:55.014782133583431] [-1.2087967894583918:40.516722754115541] [-0.78747455939254662:26.175863558596287] [-0.78749848903685227:26.176059310668197] [-51.19807887184006:62.844807391848981] [-11.692876030919882:29.056547539041365] [-0.78395533211358637:26.684212419422909] [-31.953877345983319:33.652446979110387] [-2.8320584832804414:2.8239904570843497] [-0.77887406067918608:25.445992213009674] [-25.191389686465676:0.7764233291291246] [-0.78207243677861982:25.047993669758402] [-10.425094168275407:40.189600838914245] [-7.9061135648235599:28.02753019608679] [-7.1089344003567758:25.60310565975756] [-1.322772992289651:13.107136321429101] [-1.5456957874080559:11.308644649117022] [-1.5456957874080559:11.308644649117022] [-9.3900641538137322:7.6831276873693044] [-6.4484972044251672:7.4359034684883483] [-5.202060620764632:7.6818454815147836] [-0.78621338205114466:24.615556596291519] [-8.0339446528583043:50.753179302360302] [-5.6020237857281749:35.557932720632067] [-4.5940652287110746:37.377643059187378] [-1.3983244795432108:13.336054306494532] [-1.5875352411329742:11.210733984654182] [-1.5875352411329742:11.210733984654182] [-7.7849297258123249:10.586396974887256] [-5.3720280979798902:12.802229264867108] [-4.334368514871846:13.033334225990291]
tree_sizes=3598 3610 3626 3637 3630 3642 3633 3629 3624 3640 3636 3630 3647 3638 3653 3640 3628 3649 3638 3638 3654 3634 3628 3615 3663 3649 3650 3656 3660 3670 3664 3636 3688 3660 3676 3677 3694 3647 3670 3652 3677 3635 3651 3678 3669 3714 3681 3696 3700 3702 3636 3692 3681 3679 3665 3667 3705 3703 3698 3673 3664 3680 3678 3651 3676 3641 3706 3692 3659 3686 3669 3646 3674 3727 3677 3654 3656 3642 3666 3654 3667 3691 3688 3628 3622 3652 3701 3666 3707 3695 3672 3669 3701 3672 3645 3668 3672 3635 3613 3652 3655 3726 3705 3614 3687 3621 3661 3582 3649 3652 3612 3739 3675 3647 3666 3640 3696 3623 3631 3670 3689 3705 3643 3684 3672 3548 3735 3702 3658 3652 3562 3657 3677 3695 3652 3668 3718 3675 3640 3710 3634 3627 3641 3650 3600 3691 3672 3656 3691 3610 3565 3703 3669 3662 3674 3740 3632 3715 3691 3641 3627 3697 3636 3674 3668 3616 3723 3704 3629 3750 3632 3641 3672 3642 3626 3593 3724 3707 3634 3615 3715 3544 3553 3654 3641 3676 3694 3714 3658 3661 3621 3718 3549 3673 3592 3590 3672 3632 3690 3618 3571 3688 3574 3626 3643 3614 3622 3690 3640 3641 3595 3668 3681 3583 3647 3688 3666 3681 3668 3578 3662 3669 3607 3712 3563 3605 3610 3524 3632 3649 3692 3652 3625 3585 3663 3676 3714 3653 3613 3618 3661 3659 3594 3730 3689 3562 3673 3656 3658 3648 3648 3582 3619 3588 3602 3711 3608 3585 3693 3580 3650 3599 3552 3685 3668 3665 3598 3629 3620 3595 3610 3664 3598 3571 3640 3631 3573 3623 3651 3704 3562 3657 3630 3664 3661 3608 3694 3721 3671 3637 3633 3640 3692 3553 3684 3604 3668 3668 3603 3699

Tree=0
num_leaves=31
num_cat=0
split_feature=34 34 33 30 34 30 32 34 34 30 30 33 33 29 33 33 26 30 30 34 30 29 29 30 33 30 32 29 33 30
split_gain=5135.67 1051.98 883.787 225.207 218.74 198.029 181.358 151.744 70.9377 60.7973 53.0939 67.8766 50.902 50.7438 49.1551 47.2838 38.7968 36.6415 36.5768 22.7264 22.2105 21.6891 21.4986 20.2428 20.0625 19.1054 18.2777 17.7231 17.2823 15.553
threshold=0.44072914125292345 0.84555624121901118 0.19267304424454443 0.10714042701990266 1.3251770339630407 0.4308294764259657 0.20094743537062618 0.22084197440198428 0.60387978784786223 1.1600363938183837 0.034253838168754609 -0.14717820425482583 0.64963400871453281 0.75218836287134561 0.30094282830993235 0.40994103812542809 -0.020400938714996198 2.3321559489531647 0.20573250542199675 0.61568008570304156 -0.52624855138137605 1.3804964049812114 0.41478750924025937 1.372348690198306 0.0030465703054436007 -0.621172217382301 -0.13861355539420772 1.6551262729760072 -1.1189279924523545 -0.12170104843402628
decision_type=2 2 2 2 2 2 2 2 2 2 2 2 2 2 2 2 2 2 2 2 2 2 2 2 2 2 2 2 2 2
left_child=2 5 6 14 9 8 7 10 29 -3 16 26 19 -8 20 21 24 -6 -9 -7 -4 -5 -13 -14 -1 -26 -12 -17 -18 -2
right_child=1 4 3 15 17 12 13 18 -10 -11 11 22 23 -15 -16 27 28 -19 -20 -21 -22 -23 -24 -25 25 -27 -28 -29 -30 -31
leaf_value=-0.060380229319950532 -0.06996173890321436 -0.082910109318149933 -0.064169786647962676 -0.06937230270270682 -0.096416316365686455 -0.07506775460792052 -0.065381578013359587 -0.064568799534331589 -0.075218211629353993 -0.089729145249103387 -0.06114630621324052 -0.063324841521844935 -0.079646736267822218 -0.070989256101805426 -0.067601407153538198 -0.073433336807450969 -0.064856789421939301 -0.10793612439086621 -0.068724652075996734 -0.078932686240909267 -0.066181267295991844 -0.073782614973998628 -0.065641170117982414 -0.085262872275123192 -0.060769199424157767 -0.062505774230873529 -0.063357657316843091 -0.080181334166487248 -0.062158336998099167 -0.072248736936190175
leaf_weight=329657.36404854059 67595.70090341568 33288.770757317543 109728.09999758005 87586.188049852848 8048.7229945659637 43934.905791282654 81260.590396940708 69054.696739912033 58202.47289532423 21532.11215698719 183528.37138870358 101225.59625673294 21486.809738576412 20135.266468405724 134908.75642383099 24831.000352859497 28458.17971354723 4202.9069350063801 30546.040384620428 23273.360267907381 109848.76138436794 12777.447827666998 66322.083400726318 9151.3650467097759 138953.2017596364 116444.24392551184 46936.233102321625 4615.6274263858795 142972.35030591488 53091.578090846539
leaf_count=365901 72855 43786 114406 93940 12450 51577 84477 72394 68469 30857 202760 107952 27013 22140 140343 28374 30584 7287 32994 28937 113379 14684 69951 12410 153175 124705 50242 5842 153918 59530
internal_value=-0.0660044 -0.0770523 -0.0637373 -0.067404 -0.0882881 -0.0743291 -0.0624272 -0.0620983 -0.0723507 -0.0855884 -0.0617752 -0.0627101 -0.0779461 -0.0664952 -0.0660991 -0.0709676 -0.0612833 -0.100368 -0.0658433 -0.0764061 -0.0651761 -0.0699338 -0.0642417 -0.0813242 -0.0608957 -0.061561 -0.0615967 -0.0744911 -0.0626063 -0.0709678
internal_weight=0 343809 1.83979e+06 484296 67072.5 276736 1.35549e+06 1.2541e+06 178890 54820.9 1.1545e+06 398012 97846.4 101396 354486 129810 756485 12251.6 99600.7 67208.3 219577 100364 167548 30638.2 585055 255397 230465 29446.6 171431 120687
internal_count=2397332 415171 1982161 510968 94380 320791 1471193 1364576 200854 74643 1259188 430905 119937 106617 368128 142840 828283 19737 105388 80514 227785 108624 177903 39423 643781 277880 253002 34216 184502 132385
shrinkage=1


Tree=1
num_leaves=31
num_cat=0
split_feature=33 27 27 32 33 27 27 27 32 31 31 27 33 31 27 27 27 27 31 32 33 33 32 31 31 33 32 31 33 31
split_gain=4028.29 894.703 703.836 349.146 230.778 186.103 173.996 103.642 87.0761 78.4101 62.1957 40.6098 39.7897 34.6946 32.8456 31.5795 31.0263 30.8138 29.7054 35.9708 27.7093 23.0557 21.0006 18.7046 14.87 13.4453 13.3322 12.477 11.6291 11.5903
threshold=0.38653550714544038 1.8688918484725237 0.4100609046942047 0.16534111511138708 0.66526764687599649 3.3266361242744673 1.1067230136476669 -0.010018572307387197 0.41997811895587411 0.20573250542199675 0.84840894690659441 1.8688918484725237 0.15868463255289883 -0.17927291014179586 2.4650416420957875 1.0765585505384838 0.71503569451643945 4.0506784174240584 -0.13622590402653192 -0.19681467062077143 0.23675841099034126 0.97388663670028086 0.67155479184836742 -0.17235801554928903 1.1600363938183837 1.1054191109168723 -0.010980403316495147 0.025631972777771753 -0.056886578786517393 3.5331113624341297
decision_type=2 2 2 2 2 2 2 2 2 2 2 2 2 2 2 2 2 2 2 2 2 2 2 2 2 2 2 2 2 2
left_child=2 4 3 7 9 14 16 12 13 15 -6 -8 18 -5 25 -2 -4 -7 26 28 23 -12 -10 -9 -11 -3 -1 -14 -20 -19
right_child=1 5 6 8 10 17 11 20 22 24 21 -13 27 -15 -16 -17 -18 29 19 -21 -22 -23 -24 -25 -26 -27 -28 -29 -30 -31
leaf_value=0.0053376835181459265 -0.0033930810484946077 -0.014628759999857802 -0.0010264022974774279 0.0015355749959424739 -0.0097776480321000135 -0.026582726396261597 -0.0079526454642012568 0.0028591775241638591 -0.003262701212410072 -0.0071404033426565074 -0.013905762421847595 -0.016871088433112046 0.0020233990088354614 -0.00060993248464777123 -0.020888931524383196 -0.0070126815846545459 -0.0036967058436802968 -0.034838786305130036 0.0047691511298553688 0.0027374206636656528 -0.0011064790066569726 -0.02034963245332037 -0.0099625854121143526 0.0010593852274798931 -0.010098969871221055 -0.019907033257173447 0.0042819375675276408 -0.0022999739859227031 0.00079186298120722328 -0.047121361565505199
leaf_weight=255799.30185258389 116640.653606534 25890.713131844997 136059.09295117855 190514.42623269558 48113.345961987972 6095.7143263220787 28469.075782597065 207642.52541339397 38250.320437669754 69576.130295038223 19084.309061646461 6221.4256093800068 21294.107923686504 124706.2830504179 18749.723597973585 30382.109862089157 63969.579706311226 4773.894861549139 196079.45315644145 202252.38500958681 25090.163580417633 7830.7691763341427 5330.3577221632004 79987.438631594181 22476.112185955048 5931.6503521800041 224674.6911803484 9723.2380625605583 7637.7660037279129 915.63112396001816
leaf_count=282474 124480 33013 140574 197973 57102 9041 32823 221183 40770 79150 24075 8177 22312 129755 25974 34501 68587 7737 215649 215700 26165 10769 6339 83824 26789 8113 243612 10347 8108 1663
internal_value=0 -0.00926467 0.00209723 0.00285228 -0.00709253 -0.0202061 -0.00301422 0.00365282 0.000107534 -0.00557406 -0.0119311 -0.00955209 0.0041887 0.000686778 -0.0175688 -0.00414107 -0.00188037 -0.0315228 0.00431189 0.00368212 0.00208065 -0.0157806 -0.00408216 0.00235867 -0.00786279 -0.0156126 0.00484401 0.000668119 0.00462003 -0.0368155
internal_weight=0 376461 1.8237e+06 1.58898e+06 314103 62357.3 234719 1.23018e+06 358801 239075 75028.4 34690.5 917461 315221 50572.1 147023 200029 11785.2 886444 405970 312720 26915.1 43580.7 287630 92052.2 31822.4 480474 31017.3 203717 5689.53
internal_count=2396779 442407 1954372 1704211 356866 85541 250161 1329374 374837 264920 91946 41000 998202 327728 67100 158981 209161 18441 965543 439457 331172 34844 47109 305007 105939 41126 526086 32659 223757 9400
shrinkage=0.1


Tree=2
num_leaves=31
num_cat=0
split_feature=34 34 33 34 30 30 32 34 26 34 34 30 30 29 32 29 33 29 34 32 30 33 30 30 26 30 30 32 30 29
split_gain=3268.19 667.198 509.327 149.671 134.049 123.575 123.25 96.3053 42.8333 37.3543 36.6599 35.8132 35.3193 34.4466 43.8367 34.1207 33.3212 28.4263 25.0479 25.0082 22.164 17.5199 18.9485 16.9197 14.7002 14.6901 12.5499 11.9658 11.8343 11.448
threshold=0.41807175999556401 0.79309105691973814 0.20107643548814294 1.1966134567317954 0.034253838168754609 0.27153063936867594 0.24563112902469483 0.20413921248999048 0.22859725941734618 0.5534590132929732 1.5719423172416123 1.372348690198306 0.052114383892244161 0.063628130723003259 -0.095831360814460087 1.2524654795715979 0.58141442503678842 1.1045116797424859 0.020630394439543901 -7.5882277645904219 -0.47056831132707616 0.024554165448725806 -0.68932733558818671 1.4968630622060484 1.2000993459125111 1.2599591520036562 1.7032022413700778 0.045301097619134457 3.5331113624341297 1.1045116797424859
decision_type=2 2 2 2 2 2 2 2 2 2 2 2 2 2 2 2 2 2 2 2 2 2 2 2 2 2 2 2 2 2
left_child=2 5 6 11 20 9 7 8 13 -2 -5 -3 -9 19 18 24 25 -8 -15 -1 -4 27 -23 -18 -6 -7 -17 -21 -12 -16
right_child=1 3 4 10 15 16 17 12 -10 -11 28 -13 -14 14 29 26 23 -19 -20 21 -22 22 -24 -25 -26 -27 -28 -29 -30 -31
leaf_value=0.00047500944640873537 -0.0031231276403109989 -0.012158126030349109 0.00085778638091836285 -0.020486214635121722 -0.0026894574302511682 -0.0063339665061782728 -0.00037304439541708926 0.0016936460990754185 0.00056157751265143341 -0.006099786007621049 -0.027772423527998316 -0.01736449706011493 -0.0016342873777892696 0.003824823379858561 0.0014909160306380031 -0.0059261958366977835 -0.0095499014170182007 -0.0057988385120482794 0.00093871423361741578 0.004596935431352314 -0.00086615658121800144 0.0041890188538672912 0.0026821989880509703 -0.014393212415526865 -0.0065079146286286657 -0.0095384367160507317 -0.011327563794827314 0.0030297203104920228 -0.039651829137727503 -0.0011389839856266459
leaf_weight=21229.265063762665 110997.35863471031 49119.095143437386 160920.00227546692 14138.222088366747 96798.688164532185 59620.234321415424 56958.202305793762 102059.29295378923 52404.90885591507 67976.58026611805 5358.8174878954887 18073.622745960951 46384.423566758633 209713.51956084371 88503.741639971733 14556.223309457302 37088.63048106432 11626.990891039371 35104.451827049255 362374.17455601692 138990.11724960804 162507.66698104143 171558.12902617455 8954.2295773625374 11254.227673172951 18822.204605281353 6106.0848062038422 56284.056720197201 994.16995769739151 20359.79264241457
leaf_count=22857 118012 60427 166067 19479 102733 67008 59017 106700 54619 76011 8051 23902 49342 227792 92288 16239 43856 12954 37250 395396 143646 175887 181462 11369 12668 22279 7413 59777 1686 21492
internal_value=0 -0.00815677 0.00191576 -0.0158401 -0.0010997 -0.00593668 0.00284092 0.00305433 0.00335631 -0.0042537 -0.0233215 -0.0135585 0.000653762 0.00348619 0.00266859 -0.00379914 -0.00835633 -0.00129286 0.00341098 0.00385982 5.88436e-05 0.00395528 0.0034152 -0.0104918 -0.00308717 -0.00710288 -0.0075224 0.00438624 -0.0296314 0.000999069
internal_weight=0 391143 1.82569e+06 87683.9 428625 303459 1.39707e+06 1.32848e+06 1.18004e+06 178974 20491.2 67192.7 148444 1.12763e+06 353682 128715 124485 68585.2 244818 773953 299910 752724 334066 46042.9 108053 78442.4 20662.3 418658 6352.99 108864
internal_count=2397679 452080 1945599 113545 448766 338535 1496833 1424862 1268820 194023 29216 84329 156042 1214201 378822 139053 144512 71971 265042 835379 309713 812522 357349 55225 115401 89287 23652 455173 9737 113780
shrinkage=0.1


Tree=3
num_leaves=31
num_cat=0
split_feature=33 33 33 30 30 30 32 30 33 33 33 30 33 30 32 26 29 30 30 33 32 30 32 32 33 29 29 30 33 33
split_gain=2594.94 523.472 346.058 134.264 115.303 104.246 93.5077 56.1769 65.7312 46.2719 30.9789 27.8681 26.061 30.2659 24.3725 23.5092 22.9695 22.9592 21.9591 21.3326 18.1006 16.0411 15.346 12.7909 11.8755 11.2433 10.9387 10.1962 10.07 9.81295
threshold=0.36465822810642873 0.79039653156865952 0.17393526288980424 0.50458242976150347 -0.084503436087477388 1.5919571649854143 0.22408610641647617 0.33006179444497524 -0.10686033147756908 0.51790198446300417 1.5831759973686241 0.76361646281150375 0.061065687349942409 -0.51983893666020087 0.20734556930506667 -0.020400938714996198 1.2928940344445803 0.61391660385819147 -0.67576885489671856 0.54706445839638518 -0.36048081144442162 -0.2807476160406614 -0.049988455231721692 0.069691993160676216 -0.39065220424816466 -0.13268673164981032 1.0108428620377963 -0.10707396497592704 0.49969861328150084 0.2666433346562424
decision_type=2 2 2 2 2 2 2 2 2 2 2 2 2 2 2 2 2 2 2 2 2 2 2 2 2 2 2 2 2 2
left_child=2 3 6 9 18 17 7 12 24 21 -7 -6 15 -14 28 23 -8 -3 -4 -16 -10 -2 -13 -1 -9 -22 -26 -11 -5 -20
right_child=1 5 4 14 11 10 16 8 20 27 -12 22 13 -15 19 -17 -18 -19 29 -21 25 -23 -24 -25 26 -27 -28 -29 -30 -31
leaf_value=0.0039513575265844167 -0.0016981699012208794 -0.0096996137721733055 0.0016998212322594812 -0.0094431144750130262 -0.0018436882931050871 -0.017863028300788314 -0.00023452721629923319 0.0034629481229894996 -0.0046855043765972161 -0.0044739588540519092 -0.026764425462027147 -0.0088804594111756407 0.0033053263073068318 0.0013641896539367884 -0.0057367031273291465 0.0016893537557229174 -0.0055096000432327472 -0.013688405195626164 0.00059589646927695351 -0.0090211956827992972 0.0016803236991314462 -0.0037749250979599879 -0.003931701810017999 0.0022799928390778083 0.0027146222069861087 -0.0005934298885107613 0.00049220594323977427 -0.0066044414808396614 -0.013903655043066107 -0.00080576513979262578
leaf_weight=497227.36769229174 67169.669345676899 26831.236819565296 116812.45057070255 11937.03065097332 120662.51910227537 18481.627393454313 59303.60607790947 106529.74479162693 8608.024916946888 39154.339350640774 4958.7685296833515 7500.2377642393112 191009.45780837536 138612.44157367945 37183.411947906017 58556.650535047054 9589.3239717483521 31222.009706795216 113368.26418745518 42236.195045828819 31025.351964890957 83340.508562862873 38084.672675073147 50432.971118032932 63087.973417162895 72722.276022017002 34127.561964333057 52697.634803593159 8786.6422100663185 89283.871735394001
leaf_count=536584 69736 31804 121468 14083 126747 24604 61524 115525 9504 42572 7361 8771 203612 144407 41340 62265 10650 39267 116826 49512 33036 89553 41408 52932 67251 76576 36295 59423 11082 91903
internal_value=0 -0.00691415 0.0017787 -0.00520022 -0.000503659 -0.0141175 0.002618 0.00281538 0.00166279 -0.00392752 -0.0197461 -0.00263948 0.00320469 0.00248904 -0.00828034 0.00359382 -0.000968774 -0.0118449 0.000607811 -0.00748343 -0.000279077 -0.00284811 -0.00474594 0.00379744 0.00273363 8.65279e-05 0.00193444 -0.00569627 -0.0113343 -2.16434e-05
internal_weight=0 423999 1.80654e+06 342505 485712 81493.6 1.32083e+06 1.25194e+06 316101 242362 23440.4 166247 935839 329622 100143 606217 68892.9 58053.2 319465 79419.6 112356 150510 45584.9 547660 203745 103748 97215.5 91852 20723.7 202652
internal_count=2397621 480337 1917284 377301 507123 103036 1410161 1337987 338187 261284 31965 176926 999800 348019 116017 651781 72174 71071 330197 90852 119116 159289 50179 589516 219071 109612 103546 101995 25165 208729
shrinkage=0.1


Tree=4
num_leaves=31
num_cat=0
split_feature=34 34 33 34 32 30 30 34 26 41 30 34 30 43 34 30 32 32 32 32 34 34 34 32 32 30 32 26 30 26
split_gain=2121.13 451.78 277.745 108.592 85.2081 80.5997 74.6347 65.0493 33.1394 27.916 26.4372 26.414 22.3056 22.1979 20.5894 18.3754 17.1189 17.0751 17.04 16.5757 15.5506 14.268 12.4049 12.5651 11.6197 10.1452 10.0583 9.19429 8.57047 8.37736
threshold=0.39167489354776935 0.74923961026952701 0.21265163446973054 1.1117133313377465 0.28163135545546086 0.11647150096020127 0.3420777896924776 0.23545804214948737 0.34152243146101113 0.29627755555542595 1.1600363938183837 1.5719423172416123 0.76361646281150375 -4.581606702040256 0.51822218074938553 -0.3517275086239669 0.74355740641108703 0.10415348326414982 0.51527419325105617 -0.10366917373187233 0.54382817839244313 0.14579702785422533 0.055810030231085654 -0.0026611793903648993 -7.5882277645904219 0.78368765435017906 -7.5882277645904219 1.5603078935932155 1.5427470120120435 2.4827498541048305
decision_type=2 2 2 2 2 2 2 2 2 2 2 2 2 2 2 2 2 2 2 2 2 2 2 2 2 2 2 2 2 2
left_child=2 5 4 12 7 14 15 8 9 13 20 28 -3 -1 -2 -4 27 21 -6 -9 -7 24 23 26 -15 -24 -11 -8 -5 -12
right_child=1 3 6 11 18 10 16 19 -10 22 29 -13 -14 17 -16 -17 -18 -19 -20 -21 -22 -23 25 -25 -26 -27 -28 -29 -30 -31
leaf_value=-0.00076575232481959827 -0.0019451917634443526 -0.0081614233035501773 0.00053678161976953339 -0.013549832285599568 -0.00099737914108004202 -0.0041129112635880294 -0.0030046065404697769 -0.002733978706841343 -0.00030152306086046201 -0.002160046896558162 -0.0078209212210310405 -0.022274677049634112 -0.011519231371741566 0.0008631566417794923 -0.0041428911532123891 -0.0010866556114748252 -0.0087539224300458695 0.0021592305749204952 -0.0063422333273115781 0.00058706923921373374 -0.0063781931736456637 0.0021944542250056649 0.0013647746106196499 0.00085839105995446936 0.0035147376959688407 -0.001526883576064648 0.0027485293663554841 -0.0081076851485701838 -0.017527282865991953 -0.013562952645527157
leaf_weight=15572.431085884571 109236.33177238703 41749.875487983227 165082.58910560608 13005.507859647274 45526.696084558964 63788.398047029972 58964.991682708263 18219.771433532238 38058.516427457333 4269.3764565587044 34006.795855849981 6931.4640758633614 37600.961534708738 16994.116842210293 69912.193379223347 120697.09204006195 6362.7071805000305 176202.89331310987 6864.1786598563194 85807.047109305859 57730.349903166294 107685.03536719084 72697.193398654461 49876.48414593935 600878.4777648747 14563.63476896286 188052.97702616453 3755.5126633048058 9285.2112457156181 2746.0014492273331
leaf_count=16609 113991 48297 169721 16328 47298 69174 62971 19465 39506 4681 39225 9757 45802 18190 75591 125046 7426 184599 7701 89285 64881 113242 75738 51948 644038 15486 200936 4339 12308 3447
internal_value=0 -0.00606095 0.00164419 -0.0116717 0.00226122 -0.00425554 -0.000861901 0.00241056 0.00260529 0.00269402 -0.00589986 -0.0168832 -0.00975254 0.0029776 -0.00280284 -0.000148866 -0.00381154 0.00304224 -0.00169765 5.40448e-06 -0.00518909 0.00325668 0.00190445 0.00227276 0.00344181 0.000882163 0.00263956 -0.00331016 -0.0152066 -0.00824994
internal_weight=0 445993 1.79613e+06 108573 1.44127e+06 337420 354863 1.38888e+06 1.28485e+06 1.24679e+06 158272 29222.2 79350.8 917333 179149 285780 69083.2 901761 52390.9 104027 121519 725558 329460 242199 617873 87260.8 192322 62720.5 22290.7 36752.8
internal_count=2397026 498801 1898225 132492 1528722 366309 369503 1473723 1364973 1325467 176727 38393 94099 976678 189582 294767 74736 960069 54999 108750 134055 775470 348789 257565 662228 91224 205617 67310 28636 42672
shrinkage=0.1


Tree=5
num_leaves=31
num_cat=0
split_feature=27 33 27 29 32 27 27 27 26 33 26 26 32 29 27 29 29 32 27 26 29 32 26 30 30 27 27 14 32 30
split_gain=1771.26 420.314 335.877 87.1432 79.4718 84.2689 69.2186 61.2047 35.2936 29.9975 27.069 26.1737 23.9233 20.3999 19.0673 17.6806 15.0354 23.9685 12.8561 12.2514 11.9468 11.5472 10.9433 10.6657 10.4362 9.88087 8.57527 7.49014 6.76972 6.08679
threshold=0.76673215917660453 0.25597708901787536 2.0469203684095092 0.57614191096201084 0.29491808764918143 0.23689903878743793 1.347152268719197 3.3266361242744673 0.28669958200332396 0.45051906339511688 1.8370333414928839 2.0367136655097613 0.12026392474307616 -0.095428530836214429 -0.010018572307387197 0.87400600340468348 -0.21632185768850618 -0.22326875185708853 4.0506784174240584 2.971999839950072 0.84786615571552948 0.80536265017039654 0.73123012129779486 -1.0000000180025095e-35 -0.38312046778615705 0.49006152225406885 2.6667200497462349 -0.17999681446807478 -7.5882277645904219 0.94022141503424228
decision_type=2 2 2 2 2 2 2 2 2 2 2 2 2 2 2 2 2 2 2 2 2 2 2 2 2 2 2 2 2 2
left_child=1 4 6 9 5 8 11 26 12 24 21 23 14 -14 16 -6 -1 29 -9 -8 -19 -5 -10 -2 -3 -7 -4 -16 -29 -18
right_child=2 3 7 10 15 25 19 18 22 -11 -12 -13 13 -15 27 -17 17 20 -20 -21 -22 -23 -24 -25 -26 -27 -28 28 -30 -31
leaf_value=0.0033436446118987303 -0.0028751105654664421 0.00013734732822774298 -0.010596149640136497 -0.0035805882527285768 -0.00051624355489568083 0.00048330798319455148 -0.0071108796409382214 -0.016071806293015186 0.00077673235856492301 -0.0031141539228018824 -0.010024264821726393 -0.0088771495672194511 0.0021647077998817239 -4.7090573597104294e-05 0.0025907036087093899 -0.0044272888427491436 0.0036718557022606384 0.0020556079711743307 -0.022079273804662528 -0.012777835726830259 -4.0148832794284877e-05 -0.0073823910612245448 -0.002945870594112129 -0.0044222607554216661 -0.0011723795171998484 -0.0012454329307433566 -0.013510338602188199 -0.000663157231517898 0.0016083250626672348 0.0025575313182682334
leaf_weight=445215.47569328547 82203.174075245857 117624.01206213236 31747.321017146111 49879.451453328133 49259.619496405125 107828.59133172035 86092.869152784348 7279.1099364459515 69216.545930325985 55606.144038140774 9180.0946682095528 10385.260668516159 159060.84360224009 56516.813466608524 74612.847007036209 15102.5366101861 128809.6611148715 162597.93347072601 6976.3952891528606 3991.8122145533562 32664.168450653553 9512.7150331139565 8913.8209385871887 97296.745306193829 126020.77397292852 47683.124900996685 14806.90379846096 15258.338476479053 93646.68623739481 79133.673023730516
leaf_count=475058 86862 120224 38153 53491 50829 111175 97897 9468 71517 59100 10930 12148 166268 58286 78894 16450 138456 170346 9801 4955 34269 10862 9450 105736 130600 49235 18580 16408 97864 84968
internal_value=0 0.00128295 -0.00654228 -0.0017552 0.002006 0.00215548 -0.00507915 -0.0132786 0.00241383 -0.00101839 -0.00497064 -0.00399613 0.00254296 0.00158485 0.00274311 -0.00143397 0.00294303 0.00250067 -0.0190118 -0.00736199 0.00170502 -0.00418951 0.000352024 -0.00371373 -0.000540085 -4.67599e-05 -0.011523 0.00181887 0.00129007 0.0032478
internal_weight=0 1.91334e+06 340780 367823 1.54552e+06 1.48116e+06 279970 60809.7 1.32565e+06 299251 68572.3 189885 1.24752e+06 215578 1.03194e+06 64362.2 848421 403205 14255.5 90084.7 195262 59392.2 78130.4 179500 243645 155512 46554.2 183518 108905 207943
internal_count=2398280 2014680 383600 385207 1629473 1562194 307598 76002 1401784 309924 75283 204746 1320817 224554 1096263 67279 903097 428039 19269 102852 204615 64353 80967 192598 250824 160410 56733 193166 114272 223424
shrinkage=0.1


Tree=6
num_leaves=31
num_cat=0
split_feature=27 33 27 26 27 32 27 27 30 26 32 14 32 27 33 26 26 32 30 27 27 30 32 27 26 32 27 27 30 33
split_gain=1417.35 353.615 244.922 71.985 68.3674 71.1409 51.3069 41.7127 29.6379 28.1707 18.6616 17.7672 17.5278 19.0584 17.0743 16.1555 11.3349 10.9473 10.755 9.53152 8.45805 8.26921 8.87665 7.83762 6.78456 6.47968 6.56594 6.20162 5.64022 5.56789
threshold=0.80441115915291206 0.26331036670933644 1.9537451486497719 1.2749768704361653 0.27108236566604316 0.26096810982868429 3.3266361242744673 1.2667643345045128 -0.047140121176271844 0.38037863661038324 0.47201640611579748 -0.17790950518285761 -0.031364741458286341 -0.06087033969512564 0.74224943116880959 2.3100519959547787 2.6866400137995838 0.71789197511560554 -0.24134144186443815 4.0506784174240584 2.4650416420957875 0.82626795929503782 -0.80544353636416699 0.52774834012395277 0.90885087296540046 0.097555639431655058 0.047902716180591005 1.5917398898685067 0.66887848942322792 0.47350684038784041
decision_type=2 2 2 2 2 2 2 2 2 2 2 2 2 2 2 2 2 2 2 2 2 2 2 2 2 2 2 2 2 2
left_child=1 4 7 8 5 9 20 14 -3 11 -7 25 13 21 28 -5 27 29 -14 -8 -4 -13 -23 -6 -11 26 -1 -9 -2 -10
right_child=2 3 6 15 23 10 19 16 17 24 -12 12 18 -15 -16 -17 -18 -19 -20 -21 -22 22 -24 -25 -26 -27 -28 -29 -30 -31
leaf_value=0.0030681705362292869 -0.0028765846090118719 -0.00042604579266242756 -0.0088090650914217274 -0.0047382770974670118 0.00021531714358197359 -0.00015494802089759883 -0.014024821864093456 -0.0052458278338207804 -0.0017795064352685947 0.00012829236346187928 -0.0043158728960108099 0.0029236052477864326 0.0018859511965335766 0.00084021307856584526 -0.006682938823871349 -0.010333588119924172 -0.010393631076522934 -0.0053849437206700103 0.000729195347874147 -0.019119021747924004 -0.011322116294278766 0.0033922221052485875 0.001193436709335428 -0.0013573332355809539 -0.0041003698747828976 0.0021246682330789942 0.0017578739211900651 -0.0068988546317616086 -0.0044600890033950858 -0.003672521558511832
leaf_weight=337488.17093935609 111348.68889260292 201191.9313595891 32040.257825136185 37320.120004236698 104197.46302264929 77950.035471796989 7530.613108754158 58012.232701003551 90863.755538642406 42309.149321079254 12508.404118776321 276121.00780659914 190639.99156677723 68982.295418739319 15618.856820821762 5988.2814666032791 5943.7241474986076 11203.903467416763 138965.9197871685 7169.8740250170231 23011.285815179348 25681.616600573063 64405.914432346821 45540.051876783371 4167.9299302101135 140307.55437523127 43131.054345190525 37281.061325013638 28187.710389912128 18742.466583967209
leaf_count=359168 117694 206332 37447 40762 107268 80500 9519 63924 95133 43587 13571 292964 198406 72499 17629 7164 7119 12375 144069 9703 27959 27882 68092 47066 4502 146838 44991 42245 30688 20127
internal_value=0 0.00111838 -0.00600709 -0.00168429 0.00176951 0.00198344 -0.011261 -0.00457775 -0.00116948 0.0021677 -0.000730312 0.00225513 0.00194834 0.00236496 -0.00354744 -0.00551194 -0.0061568 -0.00240756 0.00139825 -0.0165094 -0.00985951 0.00265218 0.00182025 -0.000262977 -0.000250922 0.00270556 0.00291969 -0.00589253 -0.00319647 -0.00210321
internal_weight=0 1.93771e+06 326144 365310 1.5724e+06 1.42266e+06 69752 256392 322002 1.3322e+06 90458.4 1.28572e+06 764797 435191 155155 43308.4 101237 120810 329606 14700.5 55051.5 366209 90087.5 149738 46477.1 520927 380619 95293.3 139536 109606
internal_count=2397223 2033296 363927 381893 1651403 1497069 84628 279299 333967 1402998 94071 1354909 803912 461437 166011 47926 113288 127635 342475 19222 65406 388938 95974 154334 48089 550997 404159 106169 148382 115260
shrinkage=0.1


Tree=7
num_leaves=31
num_cat=0
split_feature=27 33 27 32 27 29 27 33 26 27 26 32 29 29 32 29 14 32 27 26 32 29 30 33 30 30 30 32 30 26
split_gain=1138.7 246.39 230.442 57.256 54.266 51.8709 49.391 31.9058 26.8594 21.6846 20.3396 18.6627 13.7317 13.5877 13.1454 11.9296 11.5543 11.4448 11.3625 10.4899 9.29337 17.4987 9.09573 7.80353 7.49763 7.42139 6.83829 6.28568 5.70325 5.61508
threshold=0.68340684143516184 0.27732738638303472 1.718028364067528 0.31934158205634416 2.941779581156406 0.82429506534010888 0.20347610345137199 0.7210667679869861 0.18282091943863557 1.1352429911692214 1.0102702514688473 0.13191211395499353 1.5918963489383675 0.17036867239908762 1.0013306828402748 0.24767279446767396 -0.18025298622597433 -7.5882277645904219 4.0506784174240584 2.971999839950072 -0.1575376050414953 0.27120421039916465 1.8248862771680121 -0.0061135771861663994 -0.23451774660599692 -0.2807476160406614 1.1914556032698418 -1.190272232554455 0.58084073104243716 2.0367136655097613
decision_type=2 2 2 2 2 2 2 2 2 2 2 2 2 2 2 2 2 2 2 2 2 2 2 2 2 2 2 2 2 2
left_child=1 3 7 6 22 10 8 9 11 28 25 16 -5 -13 29 -10 -1 -18 -6 -9 23 -22 -4 26 -8 -3 -19 -28 -2 -7
right_child=2 5 4 12 18 14 24 19 15 -11 -12 13 -14 -15 -16 -17 17 20 -20 -21 21 -23 -24 -25 -26 -27 27 -29 -30 -31
leaf_value=0.0027074078014691868 -0.0020662760487675578 -4.5256525534194262e-05 -0.0072764372288603649 -0.00089483387011414593 -0.011797749689250039 -0.0037219478491592401 0.00077547276311100335 -0.0053940081344940249 0.0010748957836507198 -0.0043516678641919212 -0.0029807643865509756 0.0015427813345360133 -0.0055836019499307804 -0.00074220884013839956 -0.0091845385950120352 -0.0012549888100572386 -0.00069392387362686577 0.0028554042963303034 -0.016565246611115091 -0.010646204909695756 0.002032982651656262 0.00018318145664032674 -0.010328405900291389 -0.00021652532372130919 -0.00048064114164713409 -0.0012609625727013974 0.0037020904742551246 0.001149475350782733 -0.0035027543472226086 -0.0081507449256332121
leaf_weight=347594.80646458268 135185.78722697496 109598.69690340757 61372.152327537537 52306.121757268906 15218.730128347874 33699.524808883667 105400.30232739449 41428.987099051476 119867.73585802317 80589.275034368038 43724.454118311405 129519.95526117086 7093.0674859285355 32568.071156680584 5894.3457614183426 26910.183225870132 15421.249397516251 216049.12949615717 7444.5533642172813 4187.0039632916451 321142.1510976553 60825.454151034355 11612.882718384266 10261.304522633553 86530.354651272297 92674.74655777216 12027.021786421537 48743.363351941109 34742.279847502708 3128.5229198932648
leaf_count=367542 140976 112004 69981 54092 18623 36243 108094 45765 123746 87437 46328 134081 7882 33698 6926 28063 16578 229156 9739 5034 335524 63211 13890 10706 89599 96262 13148 51660 37288 3617
internal_value=0 0.00110415 -0.00482194 0.00159151 -0.00908935 -0.0015836 0.00170955 -0.00344361 0.00192431 -0.00300068 -0.00102502 0.00208121 -0.00145474 0.00108366 -0.00479993 0.000647736 0.00223788 0.00199944 -0.0133638 -0.0058761 0.00206152 0.00173842 -0.00776205 0.00249142 0.000209164 -0.000602251 0.0025918 0.00165466 -0.00235997 -0.00409817
internal_weight=0 1.88098e+06 391782 1.59226e+06 95648.3 288720 1.53286e+06 296133 1.34093e+06 250517 245998 1.19415e+06 59399.2 162088 42722.4 146778 1.03206e+06 684470 22663.3 45616 669048 381968 72985 287081 191931 202273 276820 60770.4 169928 36828
internal_count=2396893 1968160 428733 1666780 112233 301380 1604806 316500 1407113 265701 254594 1255304 61974 167779 46786 151809 1087525 719983 28362 50799 703405 398735 83871 304670 197693 208266 293964 64808 178264 39860
shrinkage=0.1


Tree=8
num_leaves=31
num_cat=0
split_feature=27 26 27 27 27 26 33 26 27 30 33 30 26 30 30 26 30 33 30 33 40 33 0 33 33 30 26 33 26 43
split_gain=915.051 194.854 193.719 55.1299 44.7631 39.4045 27.4125 25.1436 17.286 14.564 14.4474 12.3584 11.7753 10.9442 9.82947 9.61424 9.27985 8.42463 8.22443 6.46516 6.20116 7.25637 5.78039 5.16266 5.06956 9.85973 4.98075 4.78483 4.54901 4.41246
threshold=0.63619358643289836 0.55070201892963222 1.6515632865590579 0.16304559066125926 2.941779581156406 1.4017148409885085 0.62043616889786268 -0.020400938714996198 1.0211744885369129 0.45950194334934669 -0.24176624590755783 -1.0000000180025095e-35 2.4827498541048305 -0.29406574624149839 0.6314865667527646 2.6866400137995838 2.7504397436477954 0.12520029707509203 0.91681925652240237 0.10403415348716617 -0.60398916669096703 -1.4396851403496829 11.500000000000002 0.30482343748724533 -0.12095607919157537 -0.45827056978249808 0.86425942145514467 0.33541171817595189 4.2177727756672647 -0.55232735203583039
decision_type=2 2 2 2 2 2 2 2 2 2 2 2 2 2 2 2 2 2 2 2 2 2 2 2 2 2 2 2 2 2
left_child=1 3 6 7 18 14 8 9 -2 17 -11 20 22 -5 26 -7 -6 24 -4 29 -9 -22 -8 -13 -1 -26 -3 -15 -20 -12
right_child=2 5 4 13 16 15 12 11 -10 10 19 23 -14 27 -16 -17 -18 -19 28 -21 21 -23 -24 -25 25 -27 -28 -29 -30 -31
leaf_value=0.0026035312223666621 -0.0017310430079198226 -0.00051494556155293008 -0.0058468622673561316 0.00070758357399457812 -0.010714389111105839 -0.0047367063450626497 -0.0038148112857545216 0.0019115890584637321 -0.0034882365065247757 0.0018710065832297882 -0.0015117928378952906 0.00019831709548709189 -0.0079662847163178441 -0.00026977190011458408 -0.0028254101073277443 -0.010842907558558174 -0.015702552438228396 0.00095511915707057696 -0.0076041968656551679 -0.0020760885672718044 -0.00076797638663444719 0.0011731058493587342 -0.0071708107940972434 -0.002393293184761911 0.0024515165709760351 0.0015151958771141057 -0.0017749749365831421 -0.0019854286438618905 -0.012749644865316233 0.00081911083911367303
leaf_weight=240406.74153798819 153441.97518336773 89536.907332539558 45556.48016923666 162865.64286285639 18513.498048663139 25624.898715496063 60501.641013562679 103014.55400782824 88140.68090057373 136953.82256624103 9179.1245567202568 84059.750811755657 8940.3894436955452 116294.3004950881 35358.664376914501 2867.0305042862892 4670.4453997910023 55815.255498409271 34999.640049576759 10620.426231324673 21853.87657636404 162190.23765933514 5608.0462912917137 8460.214593231678 253398.5328515172 202210.93290024996 48291.401995778084 18897.162129223347 1806.8890537619591 70480.306968986988
leaf_count=253576 159473 91858 50724 166988 22287 27988 65056 107476 94196 145264 9717 87236 10306 120320 37605 3456 6035 57654 40110 11269 23267 167210 6383 8944 265951 209960 50138 19825 2242 73762
internal_value=0 0.00102985 -0.00412751 0.00138712 -0.00783767 -0.00190496 -0.00289076 0.00165731 -0.00237215 0.00192517 0.00122362 0.000966407 -0.00456013 0.000155504 -0.00133801 -0.00535115 -0.0117193 0.0021372 -0.00674506 0.00024153 0.00129034 0.000942617 -0.0040995 -3.8665e-05 0.002232 0.00203595 -0.000956427 -0.000509588 -0.00785679 0.000550522
internal_weight=0 1.85838e+06 422180 1.6567e+06 105547 201679 316633 1.35864e+06 241583 979065 227234 379579 75050.1 298057 173187 28491.9 23183.9 751831 82363 90279.9 287059 184044 66109.7 92520 696016 455609 137828 135191 36806.5 79659.4
internal_count=2396276 1939464 456812 1728419 121398 211045 335414 1421286 253669 1027153 240012 394133 81745 307133 179601 31444 28322 787141 93076 94748 297953 190477 71439 96180 729487 475911 141996 140145 42352 83479
shrinkage=0.1


Tree=9
num_leaves=31
num_cat=0
split_feature=27 26 27 27 32 26 27 30 32 29 27 27 29 29 26 30 29 32 29 27 30 29 30 29 29 27 26 32 27 29
split_gain=737.234 160.904 146.399 48.2025 40.7112 34.4667 28.546 26.0712 17.1852 19.9568 13.5375 12.4119 11.3932 11.222 9.79095 9.54917 9.42432 14.3779 10.5539 8.02206 7.28008 6.77697 5.8894 4.31122 4.17005 3.87074 3.87019 3.80971 3.75682 3.75652
threshold=0.66638573482234409 0.51359316790038834 1.7898618232303527 0.25380829232955987 0.33585986757677827 1.313915882480821 3.3266361242744673 0.64899489237634655 0.094573421950465961 -0.29936639237624368 1.1642818940246986 -0.018226101874345448 0.41478750924025937 1.7898237888755237 2.3100519959547787 2.1349416285303167 -0.34120953697644857 -0.29467957281711882 0.75218836287134561 2.2980436546871177 0.56401084693674486 0.61326109673649376 3.9823294719019944 2.044181096388598 0.33342442131242589 1.2318407373339155 0.80393972994385166 -0.063114506887930633 0.45350601188828904 -0.75015365991370986
decision_type=2 2 2 2 2 2 2 2 2 2 2 2 2 2 2 2 2 2 2 2 2 2 2 2 2 2 2 2 2 2
left_child=1 3 7 4 8 12 19 10 11 29 -2 16 26 24 25 -7 -1 -18 27 -4 28 -11 -8 -14 -6 -9 -3 -19 -5 -10
right_child=2 5 6 20 13 15 22 14 9 21 -12 -13 23 -15 -16 -17 17 18 -20 -21 -22 -23 -24 -25 -26 -27 -28 -29 -30 -31
leaf_value=0.0023267244719623061 -0.0017257331453478164 -0.00022289703778977972 -0.0055991997548195558 0.00042905050599805275 3.5953979275607862e-05 -0.0037535389288762475 -0.010678005008195143 -0.0032804611281978392 0.0020132157031517227 0.00036959367760636049 -0.0033642077115589651 0.0010227972995740049 -0.0020807194418081027 -0.005322951822250426 -0.0071272562437649997 -0.0084135260516951648 0.0023338980663378944 0.0018158955259543056 -0.00018268039299528332 -0.0076895869086564903 -0.0016624433602726854 -0.0013976740035434405 -0.018419454144896773 -0.0052182775849747313 -0.0018668005466573896 -0.0047724311501510953 -0.0012908191247710604 0.0010047772241925754 -0.00048671953521023609 0.0012082781829255045
leaf_weight=358550.4927982688 160950.5589209199 92325.393077731133 41665.663223862648 116741.60754221678 28585.914678931236 31115.19700807333 14817.423289179802 42958.249934434891 97084.034042239189 109113.19923228025 73433.238397300243 179082.95170789957 41886.498244643211 5986.7251893877983 10689.314969003201 5121.1592469215393 183599.26130229235 134960.42495596409 46332.378047943115 32818.416259229183 27538.534756481647 27084.695435881615 1052.5177570879459 4890.7708878517151 19290.612485170364 29214.745419979095 53658.271269798279 101421.89572519064 72689.977342426777 143933.74967086315
leaf_count=375873 167111 94636 46187 119842 29239 33419 17823 46024 101265 111738 78288 186662 43906 6627 12154 5946 194646 140811 48462 37670 29035 28267 1408 5405 20110 31952 55390 104605 74445 148239
internal_value=0 0.000901623 -0.00378949 0.00124597 0.00145601 -0.00158254 -0.0073407 -0.00277808 0.0015612 0.000985736 -0.00223907 0.00177742 -0.00105062 -0.00124112 -0.00430272 -0.00441212 0.00194125 0.00164485 0.00119738 -0.00652024 -0.000143213 1.81499e-05 -0.0111914 -0.00240877 -0.000730712 -0.00388439 -0.000615426 0.00146788 7.7645e-05 0.00153251
internal_weight=0 1.88099e+06 407600 1.652e+06 1.43503e+06 228997 90354 317246 1.38116e+06 377216 234384 1.00395e+06 192761 53863.3 82862.3 36236.4 824864 466314 282715 74484.1 216970 136198 15869.9 46777.3 47876.5 72173 145984 236382 189432 241018
internal_count=2397185 1958568 438617 1719866 1496544 238702 103088 335529 1440568 389509 245399 1051059 199337 55976 90130 39365 864397 488524 293878 83857 223322 140005 19231 49311 49349 77976 150026 245416 194287 249504
shrinkage=0.1


Tree=10
num_leaves=31
num_cat=0
split_feature=33 31 34 32 33 34 29 33 31 32 31 31 31 29 33 33 31 31 31 34 32 32 32 32 33 32 29 0 31 32
split_gain=584.48 119.459 63.4842 38.6454 37.9558 29.8172 21.8525 25.2763 17.8562 14.0894 12.1547 11.1713 10.1181 8.2201 8.02488 9.32854 8.42847 7.74079 6.89852 8.52458 6.11957 5.53367 5.41337 5.32399 5.13188 5.31928 4.84592 4.41659 4.27408 4.07748
threshold=0.33541171817595189 0.78368765435017906 0.26693388040139004 0.35287297413725688 1.0350118158000348 0.65322511185900267 -0.15498504559281653 -0.039040756973814143 0.56401084693674486 -0.056790055442821293 0.80487389076325055 -0.20735924325423064 2.9611173074044963 1.5315637310942023 0.10154931926838111 -5.4078117301553439 -0.80709753824553021 1.9679647961397209 1.3323813977111048 -0.29553616506391339 0.069691993160676216 -0.17936959992680104 -1.5268372965019481 -0.60715342266799166 0.5370698309820886 0.41997811895587411 1.4778421999558511 11.500000000000002 0.043238520398348107 0.16010231615684617
decision_type=2 2 2 2 2 2 2 2 2 2 2 2 2 2 2 2 2 2 2 2 2 2 2 2 2 2 2 2 2 2
left_child=2 5 3 6 17 11 14 9 20 18 -9 -2 27 -5 15 -1 -16 24 23 22 -4 -10 -20 -8 29 -26 -11 -6 -7 -3
right_child=1 4 8 13 12 28 7 10 21 26 -12 -13 -14 -15 16 -17 -18 -19 19 -21 -22 -23 -24 -25 25 -27 -28 -29 -30 -31
leaf_value=0.00027625068122432832 -0.00080435457081395347 -0.0050297953104491535 -0.0010341244750890616 -0.0010597413457677832 -0.0072281182470362087 -0.0026318107662455076 0.0029651581302133556 0.00026212545431254542 -0.0044586405640291487 0.00029609611234357631 -0.0017619235631436093 -0.0020744957411484182 -0.012852590450328154 -0.0046995139977940902 0.0018366239391436471 0.0018965402909081387 0.00076894541334117557 -0.0062065929013337918 0.0038151286571065507 -0.0010199974962113785 0.00016558186569961829 -0.0017503732167900262 0.00098428951684900777 0.0016460443248111339 -0.0064102770784315692 -0.0041089624098454066 -0.0022206370772783267 -0.010788176136853079 -0.0041100439169044845 -0.00250781723016903
leaf_weight=38080.248299181461 126229.37733334303 8633.7687214612961 57278.809730827808 41931.428931951523 22728.757176041603 29433.78561514616 36594.966192424297 190855.43748146296 9569.321475982666 54415.328358888626 35129.953905463219 153396.95734924078 4594.2043097019196 7282.427698135376 116857.93906837702 531135.31620973349 201310.94268232584 22415.689175724983 7921.4417009055614 19930.371054768562 164986.7678540349 35655.387150466442 45882.449196457863 186663.58508962393 13998.321038246155 35554.135147631168 8902.375073492527 4115.7877086400986 58303.542385935783 24898.262797236443
leaf_count=40314 129520 9490 59234 43336 25889 30995 39000 196276 10472 56058 37056 160595 5702 7983 121357 553024 206934 25198 8692 21153 169251 37726 48482 194811 15733 38503 9500 4960 63044 26414
internal_value=0 -0.00294545 0.00090869 0.00115825 -0.00546631 -0.00200577 0.00125031 0.000776562 -0.000512134 0.00129656 -5.25177e-05 -0.00150113 -0.0085161 -0.00159834 0.00156331 0.00178814 0.00116109 -0.00455748 0.00158529 0.000746654 -0.000143588 -0.00232343 0.00140107 0.00186226 -0.00411256 -0.00475907 -5.77528e-05 -0.00777394 -0.00361413 -0.00315717
internal_weight=0 504303 1.79038e+06 1.52289e+06 136939 367364 1.47368e+06 586296 267490 360311 225985 279626 31438.7 49213.9 887384 569216 318169 105500 296993 73734.3 222266 45224.7 53803.9 223259 83084.5 49552.5 63317.7 26844.5 87737.3 33532
internal_count=2396702 536043 1860659 1583976 151889 384154 1532657 611028 276683 377696 233332 290115 36551 51319 921629 593338 328291 115338 312138 78327 228485 48198 57174 233811 90140 54236 65558 30849 94039 35904
shrinkage=0.1


Tree=11
num_leaves=31
num_cat=0
split_feature=27 33 27 27 32 29 27 29 32 27 33 33 29 33 29 32 33 32 43 40 33 32 30 30 32 40 29 30 30 30
split_gain=495.519 129.817 75.435 28.6161 30.0338 28.4082 15.9616 14.644 24.4323 13.0127 12.5276 12.0679 11.2903 7.71006 7.08145 7.04991 6.53747 6.27934 5.2586 5.5074 4.76388 4.71841 4.53053 4.29532 3.99254 3.70349 3.63037 3.63002 3.49222 3.15966
threshold=0.84294269072610062 0.28112735424219909 2.1616260310456505 0.31701338264828111 0.34166426626836666 1.1395879977657353 1.4325907744472495 -0.43589115627752029 -0.066542305951117695 4.0506784174240584 0.48200962726057534 0.07135188943143185 0.54165132111464553 0.88447361557372595 2.6986169416356702 0.59740030517610032 -5.4078117301553439 0.14466936863198812 -4.581606702040256 1.1744606452656583 0.081800422267889375 -0.51840378618883587 1.9679647961397209 -0.94238056557727468 -0.0136860920594354 -0.55749104149011408 2.044181096388598 -0.023493212732794994 -0.56959458405735097 4.7929916369618502
decision_type=2 2 2 2 2 2 2 2 2 2 2 2 2 2 2 2 2 2 2 2 2 2 2 2 2 2 2 2 2 2
left_child=1 3 6 4 7 10 13 16 11 -4 17 18 -10 27 -7 -6 25 -3 -9 21 -18 -20 -8 -22 -5 -1 -14 -2 -19 -11
right_child=2 5 9 24 15 14 22 8 12 29 -12 -13 26 -15 -16 -17 20 28 19 -21 23 -23 -24 -25 -26 -27 -28 -29 -30 -31
leaf_value=0.0015270728700065995 -0.0015946816281007766 -0.0019892202422666953 -0.0062232957561266034 -0.0010605651708506757 -0.00089473601679867761 -0.0032433196170941398 -0.0037516447389194401 -0.00098238986753793295 0.00061671069261353989 -0.010082331796489759 -0.0020711870213934985 -0.0012366094983862009 -0.00054382378554582525 -0.0051351711894685077 -0.0072812407216493354 -0.0046888796455759113 0.001937050922471231 0.00035051823548180015 0.0025529233758444288 0.00082657294508786639 0.0019535385231876181 0.0016077381599243585 -0.0063571826375788945 0.0011152028858554834 4.9790909409894194e-05 -0.00059582913019731168 -0.0028181225898551415 -0.0025426688798394475 -0.00055882557038241468 -0.01913625400995856
leaf_weight=13621.67523753643 67763.862704694271 25168.238070487976 50745.412172615528 49321.737144291401 41338.592467963696 29695.858024835587 79367.471642196178 7889.0007762312889 321192.87572443485 7715.3011236190796 63391.834453999996 15863.621937632561 58099.017415106297 9185.7464463710785 5087.1963649988174 5555.4314194917679 310263.14063495398 57161.21661055088 65991.40461781621 71151.348040521145 88116.1166203022 264526.22377729416 7286.161983191967 199462.68438357115 94296.494185328484 20714.24477648735 7983.095917403698 100002.41835725307 161704.32255136967 405.71845233440399
leaf_count=14329 70066 26278 56853 51006 42724 31760 85241 8419 329640 9194 66345 16547 60193 10110 5814 6068 322873 58275 69967 74713 91641 275435 8197 205411 96602 22075 8592 105551 166349 547
internal_value=0 0.000646004 -0.00358152 0.00101663 0.00114642 -0.00112517 -0.00285875 0.00122725 0.000946472 -0.00681808 -0.000818702 0.00146961 0.000371803 -0.00231422 -0.00383389 -0.00134422 0.00158821 -0.000493348 0.00157443 0.00162465 0.00166528 0.00179645 -0.00397073 0.00137207 -0.00033153 0.000246364 -0.000818572 -0.00215976 -0.000321332 -0.0105347
internal_weight=0 1.9776e+06 322472 1.63539e+06 1.49177e+06 342209 263606 1.44487e+06 812697 58866.4 307426 425422 387275 176952 34783.1 46894 632178 244034 409558 401669 597842 330518 86653.6 287579 143618 34335.9 66082.1 167766 218866 8121.02
internal_count=2396815 2051056 345759 1696235 1548627 354821 279165 1499835 843506 66594 317247 445081 398425 185727 37574 48792 656329 250902 428534 420115 619925 345402 93438 297052 147608 36404 68785 175617 224624 9741
shrinkage=0.1


Tree=12
num_leaves=31
num_cat=0
split_feature=27 33 27 27 26 30 29 33 27 27 30 29 26 26 30 27 26 26 26 33 29 30 33 33 40 33 33 30 30 30
split_gain=398.55 102.765 60.9581 22.8247 22.9715 22.2347 15.7228 15.2145 13.5547 10.0596 8.22222 7.61677 7.46991 6.70932 6.63847 6.28786 5.64411 4.08852 4.00553 3.93631 6.12132 3.79106 4.01869 3.61532 3.60707 4.95447 3.46002 3.08218 3.01832 2.91136
threshold=0.82321611723632171 0.28876023672038781 2.1616260310456505 0.3575087449485706 0.6352519083033924 0.68651671156004956 0.21418162736708762 -0.21731550928407467 1.3885921236107699 4.0506784174240584 1.1600363938183837 2.2676913677215329 -0.020400938714996198 2.1558802480082879 -0.22102272928948927 0.089191036248924063 1.5033219725734299 3.4081932621933642 1.9274824436467226 -0.06824734412595089 -0.63698520210278997 1.9679647961397209 -0.95983836996598104 0.04195434667449361 -0.64512153786858806 -5.4078117301553439 0.45051906339511688 1.1014985050266144 1.9679647961397209 1.1014985050266144
decision_type=2 2 2 2 2 2 2 2 2 2 2 2 2 2 2 2 2 2 2 2 2 2 2 2 2 2 2 2 2 2
left_child=1 3 8 4 6 14 12 21 13 28 23 18 15 27 -3 19 -6 -10 -7 -1 -21 -8 -23 -9 -14 -26 -16 -2 -4 -5
right_child=2 5 9 29 16 11 7 10 17 -11 -12 -13 24 -15 26 -17 -18 -19 -20 20 -22 22 -24 -25 25 -27 -28 -29 -30 -31
leaf_value=0.0018188036549448682 -0.0017019706655404723 -0.00018372120698384339 -0.0051192236452651295 -0.00024324364937498532 -0.0012903701783855636 -0.0019781271353474907 0.0014440424252954304 0.00058729209265686319 -0.0033631430241051561 -0.0092955916208843827 -0.0015895825691671077 -0.005642123116005756 0.0013613622195532155 -0.0046358349885618384 -0.00079266360058351682 0.0005600622906008941 -0.0066283818637529468 -0.0073189600684742812 -0.0045020287635199564 0.0017800005256806328 0.00098082781649946253 0.0015034591537353614 -0.0004883605992430809 -0.00037910292082359129 -0.00071039880249920641 0.00082699335234755341 -0.0018812472948363035 -0.003041650178302175 -0.0069652916664183903 -0.0019832086610986244
leaf_weight=282576.66404777765 148846.03695571423 137243.96351850033 39914.512509346008 115075.51085752249 29644.986756622791 40651.066316246986 130139.02375996113 90571.840018570423 93632.334601104259 8227.2017804980278 31730.274617493153 8340.2607763409615 117026.81571722031 9158.5533040761948 80264.322179973125 73436.011426329613 2122.6073580980301 2687.7241179347038 7438.6662073135376 169702.416657269 220216.50629234314 17451.493929117918 24142.552339375019 67607.17259979248 22899.786031723022 247685.99678868055 45892.637696266174 19413.207083880901 11382.263390302658 10493.327552616596
leaf_count=293828 154646 140207 43889 117877 30708 42923 136242 93710 99951 9683 33519 9287 120930 9994 82898 75400 2393 3066 8098 176165 226538 18675 25559 69696 24362 254258 47894 20814 12918 11115
internal_value=0 0.000589787 -0.00314916 0.000907341 0.00101392 -0.00105097 0.00107045 0.000496341 -0.0025185 -0.00604947 -0.000120457 -0.00285236 0.00125361 -0.00200001 -0.000665042 0.00143866 -0.00164704 -0.00347353 -0.00236853 0.00153461 0.00132865 0.00117842 0.000347341 0.000174246 0.000897501 0.000696883 -0.00118866 -0.00185654 -0.00552885 -0.000388646
internal_weight=0 1.97235e+06 333262 1.65252e+06 1.52695e+06 319831 1.49519e+06 361642 273738 59524 189909 56430 1.13354e+06 177418 263401 745932 31767.6 96320.1 48089.7 672496 389919 171733 41594 158179 387613 270586 126157 168259 51296.8 125569
internal_count=2397243 2042282 354961 1710975 1581983 331307 1548882 377401 288471 66490 196925 60308 1171481 185454 270999 771931 33101 103017 51021 696531 402703 180476 44234 163406 399550 278620 130792 175460 56807 128992
shrinkage=0.1


Tree=13
num_leaves=31
num_cat=0
split_feature=27 27 32 33 27 29 14 31 29 32 33 33 27 33 29 32 32 29 33 29 0 31 29 27 31 27 0 33 28 32
split_gain=323.06 67.2697 65.896 25.0466 18.086 18.0112 12.1997 10.4645 8.77205 15.0388 8.50328 7.42313 8.02745 7.04174 6.94732 6.26594 5.81378 5.507 5.43043 4.72936 4.679 4.44785 4.35976 4.11472 3.46185 2.9118 2.71476 2.71252 2.52681 2.43048
threshold=0.60547253073515916 1.5337894157508349 0.37658275249308443 0.22749422043536524 2.6667200497462349 1.3348113578287468 -0.18191864769861468 0.37817815216756073 0.52489235192534778 -0.45250011569972703 0.42216717551299426 0.044857572778041553 -0.010018572307387197 0.76447927637444202 1.9510956561981074 0.091483071784476261 0.023613318680815006 3.1269899542338622 -0.23304581383516262 0.12117949953158437 11.500000000000002 2.5836226797672799 -0.55065163434685749 0.9486576606743794 2.3321559489531647 0.13341279782399854 11.500000000000002 0.32189491980100809 1.6473504056983179 0.028440031437603302
decision_type=2 2 2 2 2 2 2 2 2 2 2 2 2 2 2 2 2 2 2 2 2 2 2 2 2 2 2 2 2 2
left_child=2 7 3 6 20 19 25 23 11 18 15 12 16 28 29 -5 -8 -7 -10 -4 24 -6 -13 -2 -3 -1 -15 -17 -9 -11
right_child=1 4 5 10 21 17 8 13 9 14 -12 22 -14 26 -16 27 -18 -19 -20 -21 -22 -23 -24 -25 -26 -27 -28 -29 -30 -31
leaf_value=0.0015312993897035033 -0.00079926297882734201 -0.0032524036675217523 -0.00030352812953051236 -0.0015999953113322697 -0.0056813403507220486 -0.0032301518427559832 0.001518729990143514 -0.002247490664289063 0.0015633848488122268 0.00019363730457585724 -0.0025711530842496702 0.0010020440268468189 0.00017929526869411662 -0.0035402139733377198 -0.0021398922951893018 0.00041133915945366348 0.00059556263482043082 -0.0074907128417908524 -0.0014801557201455818 -0.0015142232893124944 -0.0066253108098737667 -0.0085169381100879786 0.00027384539631225433 -0.0016884069057622438 -0.0057417046747512204 0.0007247533731878069 -0.0065831774419764233 -0.00038261429973533993 -0.00085065872659013551 -0.00078328786739687505
leaf_weight=354023.1383189857 123976.27393639088 85179.000716209412 67008.227791786194 21853.739945709705 26768.451772928238 20784.753816187382 344976.45460480452 74133.37021702528 71989.378180086613 77850.250389754772 13502.256663501263 138439.72166585922 69701.209110558033 15723.169016122818 20104.834478020668 147607.5677074194 85032.735897183418 3552.249839425087 6382.1334726214409 62228.898076295853 4780.0994777083397 6972.6279611289501 202447.90048539639 89707.787477076054 5978.8081508278847 51239.919929504395 3603.8015880584717 60737.477810680866 15691.588087975979 37847.106039583683
leaf_count=367087 127287 90750 68720 22744 29719 22232 357253 78192 76069 80778 14242 142224 72616 16883 21420 151258 86984 4072 6748 64645 5394 8116 207310 92992 6671 52680 4065 62373 16393 39164
internal_value=0 -0.0023522 0.000627504 0.000806336 -0.00427595 -0.00135644 0.000962982 -0.00157945 0.000783805 0.000212481 -0.000132148 0.000929371 0.00117481 -0.00237605 -0.000424092 1.09117e-05 0.00133618 -0.00385203 0.00131554 -0.000886489 -0.00357559 -0.00626732 0.000569578 -0.00117254 -0.00341567 0.00142932 -0.00410762 0.000179883 -0.00200348 -0.000125936
internal_weight=0 452515 1.85731e+06 1.70374e+06 129679 153574 1.46003e+06 322836 1.05477e+06 214174 243701 840598 499710 109152 135802 230199 430009 24337 78371.5 129237 95937.9 33741.1 340888 213684 91157.8 405263 19327 208345 89825 115697
internal_count=2397081 476462 1920619 1760950 140650 159669 1510333 335812 1090566 224179 250617 866387 516853 115533 141362 236375 444237 26304 82817 133365 102815 37835 349534 220279 97421 419767 20948 213631 94585 119942
shrinkage=0.1


Tree=14
num_leaves=31
num_cat=0
split_feature=33 34 30 32 33 40 43 32 30 33 30 32 32 32 30 30 30 0 0 38 33 14 30 34 32 0 32 32 34 32
split_gain=252.669 42.8563 40.965 20.7996 12.3632 11.9063 12.9571 10.9251 8.57278 8.17733 8.15908 7.48449 5.20245 5.12899 4.9482 4.39806 4.36904 3.91871 3.80181 3.66284 3.45649 3.13091 3.0454 2.97277 2.8504 2.72725 2.7254 3.40312 2.63208 2.62715
threshold=0.41584496053952075 0.28045370370242345 0.91681925652240237 0.38324894096530543 1.1054191109168723 0.62700897767279418 -4.581606702040256 0.023613318680815006 -0.077268987766920497 0.089160570788132318 -0.72597217463145958 0.085087813899842366 0.84207376034380232 0.30434500798193165 3.2101970724197453 1.5919571649854143 -0.59511141611059848 11.500000000000002 11.500000000000002 2.1267005902812577 0.015592646700500552 -0.18305016380371983 1.4518234812421715 0.68229579228651149 0.29023936134090028 11.500000000000002 -7.5882277645904219 -0.40148353831856204 -0.03862262451756699 0.054195025392142861
decision_type=2 2 2 2 2 2 2 2 2 2 2 2 2 2 2 2 2 2 2 2 2 2 2 2 2 2 2 2 2 2
left_child=1 3 8 5 13 6 22 15 -2 11 -11 21 -5 -4 25 -3 -9 23 -15 20 29 -8 -1 24 -10 -6 -23 28 -28 -7
right_child=2 7 4 12 14 19 9 16 17 10 -12 -13 -14 18 -16 -17 -18 -19 -20 -21 -22 26 -24 -25 -26 -27 27 -29 -30 -31
leaf_value=-0.00083199731166332721 -0.00096088152440106784 -0.0014096561476825979 -0.0047914916803826132 -0.0011049913193642764 -0.004879785155101987 0.00072630068358191821 0.0016703876315495884 0.00043284009171106288 -0.0026981245895536334 0.0011674564584115915 0.00028072226510559217 0.00034260679108565913 -0.0063797652057960485 -0.0026547190527238837 -0.0094618085647117864 -0.0040616362316411104 -0.00046221800021699442 -0.0038877514155965607 -0.0051853522647083757 -0.00094727160296719588 -0.00020311242200725984 -0.00017478258528313157 -0.0035911388416819084 -0.0025063992099285458 -0.0013219793148299941 -0.007887679604710986 0.0019931610972097696 0.0010896588076880944 -0.00014354696051408836 -0.00052647568298233149
leaf_weight=16571.482345223427 103204.39910560846 53009.212193191051 19517.686941325665 46568.078933298588 19125.160504758358 142871.84999877214 150613.72826826572 72189.264132022858 19135.8583958745 166272.99826359749 276023.11633443832 100251.2590816021 1948.0418442487717 54583.434860348701 3367.11400359869 7089.8543544113636 223012.95581805706 11681.328493237495 6660.9737951159477 25707.29953622818 86643.692389547825 14982.236339509487 5273.3096205890179 64382.000798225403 70516.834630966187 3578.3941268920898 69132.225313335657 454521.5377317071 6289.6439172029495 18960.826961994171
leaf_count=17277 106079 55176 21400 48224 20988 148862 156391 73609 20210 170810 282966 102738 2188 58094 3985 7754 229830 12609 7360 27093 89312 15982 5806 67817 73153 4123 72521 468673 6535 19588
internal_value=0 0.000498957 -0.00233444 0.000721773 -0.00399103 0.000786243 0.000916202 -0.00049354 -0.00167634 0.000958799 0.000614073 0.0011504 -0.00131679 -0.00337983 -0.00588442 -0.00172251 -0.000243339 -0.00212191 -0.00292995 0.000189053 0.000306617 0.00126683 -0.00149805 -0.00198799 -0.00161571 -0.00535387 0.00115528 0.00119289 0.00181497 0.000579521
internal_weight=0 1.93793e+06 375753 1.58263e+06 106833 1.53412e+06 1.25993e+06 355301 268920 1.23809e+06 442296 795791 48516.1 80762.1 26070.7 60099.1 295202 165716 61244.4 274184 248476 695539 21844.8 154035 89652.7 22703.6 544926 529943 75421.9 161833
internal_count=2397153 2001335 395818 1634966 115950 1584554 1299699 366369 279868 1276616 453776 822840 50412 86854 29096 62930 303439 173789 65454 284855 257762 720102 23083 161180 93363 25111 563711 547729 79056 168450
shrinkage=0.1


Tree=15
num_leaves=31
num_cat=0
split_feature=27 26 27 27 26 32 29 32 31 33 29 27 27 29 29 26 32 31 32 29 33 33 1 31 31 26 40 31 29 27
split_gain=218.075 59.8376 30.2598 24.6584 14.1097 13.8077 8.54597 14.2152 8.286 7.64696 6.88082 5.05453 4.89784 4.73306 3.97137 3.92545 3.57983 3.12103 3.02291 7.41592 2.98469 2.55025 2.48201 2.47127 2.42923 2.30733 2.16936 2.02403 1.99721 1.87346
threshold=0.88305324951872455 0.6812125760374913 2.2980436546871177 0.33630797584996869 1.6826162547638772 0.39691651478113366 -0.51100847027674734 -0.088467722135462432 1.5919571649854143 0.04195434667449361 0.92826768507729207 1.4792517317642166 4.0506784174240584 2.044181096388598 1.5918963489383675 3.4081932621933642 -7.5882277645904219 -0.15825834383423806 -1.0033740128040607 1.5315637310942023 1.1054191109168723 0.14170360930593276 25.500000000000004 2.7504397436477954 0.6314865667527646 1.0986225238818041 -0.31103621681589916 3.9823294719019944 0.018054735262843655 0.027268528151767401
decision_type=2 2 2 2 2 2 2 2 2 2 2 2 2 2 2 2 2 2 2 2 2 2 2 2 2 2 2 2 2 2
left_child=1 3 8 5 14 6 16 9 11 18 28 -2 -4 -7 25 -6 22 -5 -8 29 -10 -18 -1 -21 -11 -3 -24 -14 -9 -20
right_child=2 4 12 17 15 13 7 10 20 24 -12 -13 27 -15 -16 -17 21 -19 19 23 -22 -23 26 -25 -26 -27 -28 -29 -30 -31
leaf_value=0.00058730986116207898 -0.0014753043877617758 -0.00053922293005745912 -0.0041937797915725661 -1.1633229964271057e-05 -0.0031687802390589974 -0.00061890406615338364 0.0021912423216353962 0.00050572492238785505 -0.0032288940206328868 -0.00030100548801209202 -0.00099452472296706284 -0.0024722331679415139 -0.0062807615576214622 -0.0039574202351742912 -0.0027225245858069022 -0.0085054956724599281 0.0012903615613093578 -0.00072827805199714114 0.0012876207281476209 0.00020448775313291142 -0.0062188960988388935 0.00082638714842083155 -0.00010763971402499893 -0.0017383700632148493 -0.0030181968444381916 -0.0013531239651026006 -0.0036247310003915192 -0.011311925803438178 6.4485085774713575e-05 0.00031576826080797739
leaf_weight=14353.723870098591 157684.62685757875 113878.00421106815 43509.40723490715 136605.29356890917 22633.552918970585 41049.840896308422 25312.975797653198 317043.7795343399 21869.732339322567 16362.05983299017 40572.109107851982 75068.703680992126 7756.0646878480911 4736.5248402357101 11347.838496088982 1467.665856897831 387834.77727717161 109467.68452841043 312951.94739288092 37776.440105199814 3939.9985890388489 170566.95259642601 3871.2413600683212 7919.432433784008 4118.4203941226006 50178.910991430283 3206.2049621343613 891.52651751041412 151650.79432165623 21177.788504600525
leaf_count=15264 163602 117086 47158 139335 24117 42256 27083 324405 23558 16856 42422 78979 8712 5141 12095 1706 399590 113543 324307 39542 4427 174974 4113 8450 4424 51983 3540 1087 155767 21815
internal_value=0 0.000418434 -0.00242857 0.000599928 -0.00122504 0.000746636 0.000798353 0.00061129 -0.00198535 0.00103783 0.00025481 -0.00179684 -0.0046258 -0.000964268 -0.000913309 -0.00349376 0.00109996 -0.000330439 0.00113313 0.00106262 -0.00368533 0.00114864 -0.000168364 -0.000132224 -0.000847406 -0.000788165 -0.00170094 -0.00679945 0.000362957 0.00122602
internal_weight=0 2.00608e+06 310720 1.80658e+06 199506 1.56051e+06 1.51472e+06 934886 258563 425619 509267 232753 52157 45786.4 175405 24101.2 579833 246073 405139 379826 25809.7 558402 21431.2 45695.9 20480.5 164057 7077.45 8647.59 468695 334130
internal_count=2397337 2069814 327523 1862827 206987 1609949 1562552 965071 270566 442477 522594 242581 56957 47397 181164 25823 597481 252878 421197 394114 27985 574564 22917 47992 21280 169069 7653 9799 480172 346122
shrinkage=0.1


Tree=16
num_leaves=31
num_cat=0
split_feature=27 26 27 27 32 26 29 32 33 30 27 29 0 32 29 0 29 30 27 27 33 32 1 30 33 0 30 33 1 0
split_gain=176.423 49.1737 23.3275 20.7119 11.813 11.3802 7.69355 12.5015 7.09283 6.03192 4.65463 4.52278 3.56003 3.52635 6.66501 3.37303 3.36768 3.3091 3.10169 2.93784 2.84336 2.50782 2.44175 2.3931 2.35379 2.32162 2.26513 2.08781 2.00314 2.1001
threshold=0.90432694126830515 0.69771058697371979 2.1616260310456505 0.36790135125990758 0.45314003140879355 1.7557958044321647 -0.32870920679535548 -0.022315670405182699 0.10869837389463392 1.8924648479690052 4.0506784174240584 0.92826768507729207 11.500000000000002 -0.74346939988740657 1.2928940344445803 11.500000000000002 2.8921867618492576 3.2101970724197453 1.4325907744472495 -0.010018572307387197 -0.33392488382094676 -0.073627570670555378 13.500000000000002 1.0179917966002991 0.10637911822221811 10.500000000000002 2.1349416285303167 0.47350684038784041 26.500000000000004 11.500000000000002
decision_type=2 2 2 2 2 2 2 2 2 2 2 2 2 2 2 2 2 2 2 2 2 2 2 2 2 2 2 2 2 2
left_child=1 3 9 4 6 15 19 8 13 12 25 -9 18 20 -15 23 -6 -7 -2 24 -8 -5 -14 -3 -1 -4 -16 -23 29 -27
right_child=2 5 10 21 16 17 7 11 -10 -11 -12 -13 22 14 26 -17 -18 -19 -20 -21 -22 27 -24 -25 -26 28 -28 -29 -30 -31
leaf_value=0.0011779223977734839 -0.0012774489753045806 -0.00058370342497192698 -0.0032894736116588393 -0.0011763992349179567 -0.0010238448891756091 -0.0029462392095289907 0.0018050085112168634 0.00013561230264374347 -0.001422001714274999 -0.0036696811641620665 -0.0060972314857047271 -0.001042817162410512 -0.0045244506032087826 0.00095289918445526475 8.5592363299186961e-05 -0.0024080325114852613 -0.0053555111168858615 -0.007660930999442689 -0.002069264632506083 0.00065351380137802111 -0.0029662588006867711 -0.0001489387350804013 -0.0010574405165415096 -0.0016842317638325124 0.0006806335951337456 -0.0026060208533720372 -0.0015023071030227935 -0.0016703001344904904 -0.0072770159775949238 -0.0061479733037605672
leaf_weight=391659.14967495203 139304.11445552111 138792.85514193773 43206.544898748398 31917.616830706596 28270.372373461723 20021.388110935688 48612.167131632566 289286.76761615276 13664.934686005116 15710.349432945251 8712.4724983870983 36700.303920507431 6924.801651597023 325167.7745025754 38297.182394266129 13111.103756785393 1916.4953996539116 1608.2665748596191 76714.401594638824 276951.28732353449 1281.9417946338654 189243.79080843925 2874.6481264233589 23038.533653020859 125737.49907916784 3992.6958301663399 11736.638548195362 9471.8749948143959 2767.9569277763367 2882.551836848259
leaf_count=402565 144239 142560 46133 33098 29231 21268 51488 296275 14242 17072 9775 38349 7549 335849 39959 13847 2128 1847 80273 285094 1377 194042 2981 24258 128726 4229 12468 9900 3157 3231
internal_value=0 0.000369665 -0.00221794 0.00053196 0.000660472 -0.0011329 0.000698408 0.00047201 0.000820514 -0.00177503 -0.00395564 2.94226e-06 -0.00164321 0.000892601 0.000787571 -0.000865359 -0.00129885 -0.0032968 -0.00155865 0.00091637 0.00168242 -0.000353611 -0.00350741 -0.000740376 0.00105707 -0.00360259 -0.000286888 -0.000221455 -0.00500553 -0.00409104
internal_weight=0 2.01649e+06 303091 1.81992e+06 1.58928e+06 196572 1.5591e+06 764748 438761 241528 61562.2 325987 225818 425096 375202 174942 30186.9 21629.7 216019 794348 49894.1 230633 9799.45 161831 517397 52849.7 50033.8 198716 9643.2 6875.25
internal_count=2397210 2078571 318639 1874791 1637751 203780 1606392 790007 455383 252114 66525 334624 235042 441141 388276 180665 31359 23115 224512 816385 52865 237040 10530 166818 531291 56750 52427 203942 10617 7460
shrinkage=0.1


Tree=17
num_leaves=31
num_cat=0
split_feature=27 26 27 32 14 27 33 32 26 30 33 32 27 33 32 39 28 30 32 26 30 30 30 30 32 26 32 30 30 26
split_gain=142.927 33.9853 30.6739 10.6038 8.78874 7.99918 6.88518 6.11539 6.07407 6.0069 4.35729 4.28625 3.95361 2.76064 2.67707 3.45088 2.65763 2.60067 2.58313 2.36189 2.30285 2.18493 2.13656 2.10458 2.44397 1.9856 1.97802 1.97521 1.88882 1.77238
threshold=0.57840185064233929 0.76670567761412989 1.5917398898685067 0.49285798281236021 -0.18129794897968707 2.941779581156406 0.10869837389463392 0.087225444210078315 1.9274824436467226 0.14512971478950948 0.84997462629272602 -0.0136860920594354 -0.036980519848132144 0.14402539045817533 -0.37272106737770833 0.33263668596438861 1.7811785193868603 0.96582697838053766 -0.40148353831856204 4.2177727756672647 4.7929916369618502 -0.42139255346413285 1.2599591520036562 2.0488633358217982 -1.5268372965019481 0.49001213747220379 0.88538350239356389 1.0179917966002991 2.2286816517301724 3.4081932621933642
decision_type=2 2 2 2 2 2 2 2 2 2 2 2 2 2 2 2 2 2 2 2 2 2 2 2 2 2 2 2 2 2
left_child=1 3 9 4 13 19 7 12 22 -2 16 27 14 -1 23 -16 -11 -17 -14 25 -7 -13 -3 -6 -25 -4 -5 -8 -12 -10
right_child=2 8 5 26 6 20 11 -9 29 10 28 21 18 -15 15 17 -18 -19 -20 -21 -22 -23 -24 24 -26 -27 -28 -29 -30 -31
leaf_value=0.0010777361745698889 -0.00066227599768714171 -0.00084359700442765092 -0.0032012934758311505 -0.0011097515370646388 0.0013895451757453131 -0.0042915325485959601 -0.00086159434007714638 -8.1980967407192465e-05 -0.0031674844377364351 -0.0014801184346027662 -0.0026322892095612797 0.00042703072678240022 -0.00068982296330255891 0.00059014024586879425 0.00085685450311675723 0.00047657329234338555 -0.0001969368043878302 -0.00065849258895450756 0.00042856714528368962 -0.0057341927872921646 -0.010509880480895644 -6.682544783489296e-05 -0.0021413840261015242 0.0021189071015341181 -0.00021201371885418773 -0.0021297969689806347 -0.0044405418816419523 -0.0037030636206021508 -0.0059014563979694007 -0.0075109438755257014
leaf_weight=342538.88451817632 190197.43422925472 87413.328695416451 22744.381590247154 28378.033112704754 108625.25189524889 25327.142659604549 23860.751579344273 116939.03738868237 8809.8374069333076 126432.79458194971 14501.226917922497 167456.77832090855 27039.997931957245 175662.43397700787 321258.28656870127 88600.302013814449 18502.603717088699 26141.420920491219 87415.827944278717 2155.4115495681763 609.88781502842903 192646.89140635729 14838.944787919521 5960.8799605667591 18331.906732738018 72177.960595548153 1902.4691124558449 2725.8773087263107 2012.6129305362701 1051.6221717000008
leaf_count=352948 194933 90022 24222 29401 113153 27557 24613 119803 9404 132115 15372 170597 28697 180220 329912 90957 19277 27315 89940 2397 737 198015 15708 6442 19378 75802 2072 2960 2256 1203
internal_value=0 0.000426902 -0.00151853 0.00053591 0.00056885 -0.00287768 0.000418847 0.000586258 -0.00126052 -0.00104307 -0.00149166 7.23656e-05 0.000700607 0.000912449 0.000808492 0.000688721 -0.00131631 0.000217973 0.000164349 -0.00246087 -0.00443775 0.000162829 -0.00103193 0.00120137 0.00035994 -0.00238654 -0.00131902 -0.00115292 -0.00303072 -0.00363067
internal_weight=0 1.8476e+06 474661 1.73549e+06 1.7052e+06 123015 1.187e+06 800313 112114 351647 161449 386690 683374 518201 568918 436000 144935 114742 114456 97077.8 25937 360104 102252 132918 24292.8 94922.3 30280.5 26586.6 16513.8 9861.46
internal_count=2397428 1902760 494668 1786423 1754950 130715 1221782 825597 116337 363953 169020 396185 705794 533168 587157 448184 151392 118272 118637 102421 28294 368612 105730 138973 25820 100024 31473 27573 17628 10607
shrinkage=0.1


Tree=18
num_leaves=31
num_cat=0
split_feature=27 26 27 33 29 33 29 27 33 29 29 40 33 33 0 0 1 0 27 1 43 1 43 26 29 33 26 26 43 0
split_gain=117.29 32.9453 14.6632 14.6509 8.14094 6.82034 5.74199 5.54291 4.4304 4.18263 3.77479 3.35183 3.8688 3.87197 2.92754 2.90632 2.81855 2.64989 2.60802 2.48416 2.28302 2.17376 1.93393 1.88552 1.73084 1.71681 1.73451 1.70046 1.64403 1.60674
threshold=0.92562929561949947 0.88583612705497983 2.2980436546871177 0.23983947936530739 0.37278751300309398 -0.3217641358094358 1.7898237888755237 0.29820542405139411 1.0350118158000348 2.1479447233722957 0.47596031231769276 -0.50512771957706437 -5.4078117301553439 -0.076093948134228637 11.500000000000002 1.5000000000000002 8.5000000000000018 9.5000000000000018 4.0506784174240584 25.500000000000004 -4.581606702040256 27.500000000000004 0.7718370129467429 1.5033219725734299 -0.87159383229864418 0.50878268550873695 0.12603898297986285 3.4081932621933642 -0.72679964685717857 9.5000000000000018
decision_type=2 2 2 2 2 2 2 2 2 2 2 2 2 2 2 2 2 2 2 2 2 2 2 2 2 2 2 2 2 2
left_child=1 3 8 4 7 22 14 11 15 20 25 24 19 -14 23 16 -2 -17 29 -13 -7 -19 -6 -3 -1 26 -5 -8 -11 -4
right_child=2 6 18 10 5 9 27 -9 -10 28 -12 12 13 -15 -16 17 -18 21 -20 -21 -22 -23 -24 -25 -26 -27 -28 -29 -30 -31
leaf_value=0.0012469473565625111 0.00027911857942422829 -0.0006282071069981099 -0.0026475942961828695 -0.00063427823039553463 0.00081845775971476926 -0.00166475278868479 -0.0028963250007644002 -7.5628470648886131e-05 -0.0031146383422139879 -0.0039486524514983799 -0.00097634882806228816 -0.00018444142591606813 0.00096520250745877213 0.00045868556614137842 -0.0026007830637767965 -0.0010542881516333613 -0.0027493031270645475 -0.0016665680010779637 -0.0049125212315879064 -0.0028210178891197829 -5.8914720125305116e-05 -0.0037909927348587754 -0.00034876912045034812 -0.0016133210351712613 0.00080590824096182204 -0.0014609438840946867 9.1358212592053812e-05 -0.0072835766278060614 -0.0013423603989437798 -0.0039835254236911697
leaf_weight=126334.09680730104 3529.0995106697083 85596.544444441795 31752.064810574055 37916.25293046236 107248.188806355 9350.885984480381 11974.213877022266 96139.325161039829 15956.145266771317 2937.7489403486252 50932.81176429987 20785.01253426075 225637.57329088449 455752.2267575264 10476.076800405979 151955.8152371645 23790.165379166603 42233.447244048119 8783.9932332038879 4315.501157283783 166376.19847333431 5436.480881690979 16360.15218526125 25134.616199433804 300958.56504887342 8319.093636572361 251054.91706943512 953.82367676496506 13739.836390674114 12565.605954945087
leaf_count=130180 3649 88110 33594 39027 112199 9814 12814 98408 17064 3198 52980 21854 231962 466223 11090 156906 25200 44190 9700 4726 171971 5874 17275 26154 308302 8678 257056 1088 14540 13615
internal_value=0 0.000297836 -0.00183306 0.000405085 0.00053708 8.43614e-05 -0.00121666 0.0006534 -0.00150398 -0.000288002 -0.000180905 0.000715218 0.000581502 0.000626415 -0.00100298 -0.00139074 -0.00235809 -0.00125835 -0.00333838 -0.000637745 -0.000144365 -0.00190885 0.00066397 -0.000851816 0.000936307 -4.46273e-05 -3.85341e-06 -0.00322001 -0.00180146 -0.00302638
internal_weight=0 2.02829e+06 296003 1.89416e+06 1.54594e+06 316013 134135 1.22992e+06 242901 192405 348223 1.13378e+06 706490 681390 121207 226945 27319.3 199626 53101.7 25100.5 175727 47669.9 123608 110731 427293 297290 288971 12928 16677.6 44317.7
internal_count=2397441 2087649 309792 1948393 1590652 328997 139256 1261655 252883 199523 357741 1163247 724765 698185 125354 235819 28849 206970 56909 26580 181785 50064 129474 114264 438482 304761 296083 13902 17738 47209
shrinkage=0.1


Tree=19
num_leaves=31
num_cat=0
split_feature=27 26 30 27 32 29 14 27 26 29 29 32 26 32 30 26 29 0 0 26 0 29 30 0 32 1 1 44 27 30
split_gain=94.4798 26.7394 13.1515 11.8952 8.97301 8.32305 5.18355 4.88861 4.53783 3.27325 3.11666 5.18498 2.83668 2.93175 2.55009 2.54663 2.30578 2.19339 2.18788 1.89563 1.8298 1.66262 1.58784 1.58711 1.59473 1.56499 1.98372 1.52982 1.49904 1.43688
threshold=0.92562929561949947 0.93304459848421428 1.758973386959561 0.30721303319074217 0.18567819270024941 0.29469368250038069 -0.17100246053433424 1.718028364067528 2.1558802480082879 2.8921867618492576 1.2524654795715979 -0.64620754852222806 -0.020400938714996198 -0.30392043681209696 3.2101970724197453 -0.26765145552250663 3.4079816294850045 11.500000000000002 9.5000000000000018 0.15431045211869657 1.5000000000000002 -0.025065592827714995 3.5331113624341297 11.500000000000002 0.32465525660023814 25.500000000000004 6.5000000000000009 0.32247844759194427 -0.24401846507937167 -0.54450099397589258
decision_type=2 2 2 2 2 2 2 2 2 2 2 2 2 2 2 2 2 2 2 2 2 2 2 2 2 2 2 2 2 2
left_child=1 3 7 4 6 -6 19 23 17 -7 12 -12 13 28 -4 20 -13 -3 -9 27 -5 -15 -10 24 -2 26 -20 -1 -8 -17
right_child=2 8 14 15 5 9 10 18 22 -11 11 16 -14 21 -16 29 -18 -19 25 -21 -22 -23 -24 -25 -26 -27 -28 -29 -30 -31
leaf_value=0.00091120642529300363 -0.0013439755568907356 -0.00084063867838570731 -0.0029549961838826228 -0.0026090664863343115 0.00027687383132622164 -0.00080841942483274179 0.0012279816798362409 -0.0017316446215222903 -0.0027395559186901919 -0.0039333402544520996 0.00076820170502583636 -0.00076238204777066127 3.361397009818303e-05 0.00058731941761326005 -0.0050339617903979623 0.00027381652799964468 -0.0034918005983963748 -0.0024087794421110975 -0.0039971947889902376 0.00024572334288494108 -0.0006491697603575817 0.00011343594800346604 -0.0069863584887450009 -0.0025141608832167373 -0.00073113730772794911 -0.0043661287790794914 -0.0015161979536088483 0.00048965398147887045 6.799328935194106e-05 -0.00022362465254190805
leaf_weight=490361.55068001151 82079.518956363201 100436.2266651392 32941.023390889168 5387.5350378751755 220869.64753341675 68429.305451333523 81878.645086884499 58868.911655843258 9990.6731634736061 3524.6262050271034 28751.833906263113 36367.851121425629 122669.9513297081 243303.84401744604 7187.4789727926254 82328.174392580986 3383.0425530076027 9788.930741071701 4971.0597447752953 59616.182659029961 41134.020325362682 106421.06344795227 965.48687416315079 7491.68397128582 87970.693406403065 5583.7095314860344 9163.4282004833221 104418.22493308783 12895.044543147087 197057.6403567791
leaf_count=504197 84960 103735 35428 5708 225595 70740 84798 61322 10602 3848 30465 38048 126201 248777 8008 83838 3680 10345 5377 61060 42366 109445 1099 7940 90806 6071 9553 107369 13328 202904
internal_value=0 0.0002676 -0.00164408 0.000359047 0.00047232 -2.7423e-05 0.000585753 -0.00138036 -0.00117283 -0.000961492 0.000382372 -0.000254762 0.000459325 0.00057681 -0.00332736 -0.000191108 -0.000994672 -0.000979903 -0.00203701 0.000783315 -0.00087614 0.000443117 -0.0031138 -0.0010897 -0.00102694 -0.0029487 -0.00238876 0.0008372 0.00107015 -7.70409e-05
internal_weight=0 2.02998e+06 296258 1.9088e+06 1.58289e+06 292824 1.29007e+06 256129 121181 71953.9 635671 68502.7 567169 444499 40128.5 325907 39750.9 110225 78587.1 654396 46521.6 349725 10956.2 177542 170050 19718.2 14134.5 594780 94773.7 279386
internal_count=2397613 2088148 309465 1962367 1627551 300183 1327368 266029 125781 74588 654742 72193 582549 456348 43436 334816 41728 114080 82323 672626 48074 358222 11701 183706 175766 21001 14930 611566 98126 286742
shrinkage=0.1


Tree=20
num_leaves=31
num_cat=0
split_feature=27 33 30 29 32 33 29 27 27 32 30 14 26 29 32 33 33 29 27 32 33 29 32 32 43 0 33 27 32 30
split_gain=77.0451 23.5148 10.2835 7.54679 8.66753 6.64394 6.17938 5.62693 4.8481 4.79736 3.04055 2.85611 2.78 2.77057 2.55591 2.50286 3.69002 2.98448 2.4325 2.20336 2.08102 1.9727 1.79863 1.74845 1.72039 1.68629 1.65111 1.6218 1.58685 2.84924
threshold=0.97174241887763191 0.31361946882173669 1.3323813977111048 0.14017633333816829 -0.37272106737770833 0.5688947225271308 2.3914065020655282 1.0000000180025095e-35 0.46495594604176094 0.19478099944403823 2.9611173074044963 -0.18392332796575181 1.0678137933640957 2.8921867618492576 0.67155479184836742 -5.4078117301553439 -0.031916983016739044 -0.70453382104472562 1.5337894157508349 0.41997811895587411 -0.12095607919157537 4.3030632469998071 -0.053532984148247996 0.065554215442572367 1.3361317716504499 11.500000000000002 0.12757240902413763 2.941779581156406 -1.5268372965019481 2.9611173074044963
decision_type=2 2 2 2 2 2 2 2 2 2 2 2 2 2 2 2 2 2 2 2 2 2 2 2 2 2 2 2 2 2
left_child=1 3 18 8 7 9 12 20 11 -3 25 -1 23 19 -11 24 22 -18 -2 -7 28 -8 -17 26 -13 27 -6 -4 -5 -30
right_child=2 5 10 4 6 13 21 -9 -10 14 -12 15 -14 -15 -16 16 17 -19 -20 -21 -22 -23 -24 -25 -26 -27 -28 -29 29 -31
leaf_value=0.00085978311608352932 -0.00093281441169592032 -0.0014138401638550901 -0.0018597580473679412 0.0023098704073942189 0.00020547717984966646 -0.0035429707898385165 -0.0016829718350428935 -0.0013070557489467363 -0.00026773562557061854 -9.1020145102853214e-05 -0.0042990308746108253 -0.00027340015023879507 -0.0022923299898514782 -0.0047586926311352614 -0.0014791217070395405 0.00094258373670391075 0.00070698708583683077 0.00022360461773286179 -0.0016170386543816581 -0.0012033430868176728 -0.0018249331138737489 -0.0048806340072888414 0.00037851111881722249 -0.00039420180624406614 -0.0075511159890983039 -0.0042767037825076322 -0.00069014569689008576 -0.0031622083126214245 0.0010277098476241156 -0.00083671051807448636
leaf_weight=244553.14068943262 128523.70407116413 36407.276595652103 36414.08743172884 8327.6721625030041 163614.71824681759 4395.1445878744125 14665.915940701962 12546.985208690166 76168.373757123947 213141.96649205685 9596.0232743024826 35854.553395211697 5889.1298472285271 2577.6070147156715 14145.183733463287 220654.78583174944 182163.16818845272 427433.54514300823 87218.119216620922 47827.92383658886 2708.1346372961998 2221.5257679820061 75999.068004608154 121628.72372251749 327.7856547832489 4253.9089216589928 23546.088253200054 12964.034122347832 102686.67167472839 8907.7941358685493
leaf_count=250751 132670 37813 38590 9000 168868 4712 15581 13142 77903 218809 10593 37773 6194 2839 14730 226443 186187 436434 90753 49701 2859 2475 77464 125259 384 4656 24380 13901 106892 9446
internal_value=0 0.0002333 -0.00153811 0.00037868 3.50748e-05 -0.000556329 -0.000240079 0.000709978 0.000505645 -0.000348118 -0.00265962 0.000555272 -0.000140071 -0.00155822 -0.000177408 0.000476254 0.000508816 0.000368052 -0.00120943 -0.00140025 0.000916352 -0.00210362 0.000798075 -9.90234e-05 -0.000339331 -0.00236629 9.28018e-05 -0.00220171 0.000978257 0.000878886
internal_weight=0 2.04839e+06 278970 1.7299e+06 466743 318495 331566 135177 1.26315e+06 263694 63228.1 1.18699e+06 314679 54800.7 227287 942433 906251 609597 215742 52223.1 122630 16887.4 296654 308790 36182.3 53632 187161 49378.1 119922 111594
internal_count=2397202 2106039 291163 1777435 484096 328604 342757 141339 1293339 271352 67740 1215436 324701 57252 233539 964685 926528 622621 223423 54413 128197 18056 303907 318507 38157 57147 193248 52491 125338 116338
shrinkage=0.1


Tree=21
num_leaves=31
num_cat=0
split_feature=27 33 30 43 41 29 26 27 32 33 32 29 44 32 27 29 27 42 32 30 30 0 32 1 30 0 0 28 1 0
split_gain=62.0256 19.126 8.33845 6.83458 7.22433 5.44155 3.88237 3.62837 3.57149 3.62418 3.02923 3.75123 2.95902 2.56198 4.17885 3.77659 2.50164 2.01272 1.99127 1.92246 1.88996 1.72748 1.81902 1.75498 1.72365 1.62201 1.41979 1.3245 1.31405 1.28825
threshold=0.97174241887763191 0.31361946882173669 1.9679647961397209 -4.581606702040256 -0.053199671634678099 1.5918963489383675 1.0385871855925168 2.0469203684095092 0.17967292101737697 0.5370698309820886 -0.12044441578074869 -0.77076212145284118 1.0161886405472671 -0.32497903071441264 -0.23701064595220087 0.98272199392115089 -0.15148362355704073 -0.49778691744431369 0.42814649690338241 1.4518234812421715 2.9611173074044963 11.500000000000002 0.35287297413725688 7.5000000000000009 3.9823294719019944 1.5000000000000002 10.500000000000002 1.2692825355492494 24.500000000000004 11.500000000000002
decision_type=2 2 2 2 2 2 2 2 2 2 2 2 2 2 2 2 2 2 2 2 2 2 2 2 2 2 2 2 2 2
left_child=1 3 7 19 10 8 12 21 -3 27 16 -12 13 14 -6 -15 -5 -17 -11 -1 -7 22 25 -23 -4 -2 -9 -10 29 -28
right_child=2 5 24 4 6 20 -8 26 9 18 11 -13 -14 15 -16 17 -18 -19 -20 -21 -22 23 -24 -25 -26 -27 28 -29 -30 -31
leaf_value=-0.00075791902898732992 -0.0022909075848182576 -0.0014352906582840586 -0.0026797464043362834 0.0010619124011586533 0.0008857156201798205 -0.0017273721246401951 -0.0021748184218884302 -0.0016746729428117292 -0.00014725597500558527 -0.00252613220195089 0.00077420108800215859 0.00029920427120636419 -0.00078409770470911928 0.00018382574289850282 -0.00051136906881273385 -0.0020403759869797619 0.00026093780841095589 -0.00042034170831157152 -0.00075571555900689721 -0.0027282960221457586 -0.0048849852579947207 -0.0038932624380965987 -0.00061152538475549214 -0.0010231953802993623 -0.0052549496962838943 -0.0010699015887283404 -0.00055631453463479339 0.00090432897248651474 -0.004367327784235619 -0.003620619864768632
leaf_weight=21294.933016955853 12603.81900459528 29487.872046589851 28567.767813980579 164956.18047654629 102226.64914557338 19521.410881280899 7269.2159306406975 43336.165603220463 197460.61323875189 7276.2720986008644 242731.45059984922 527751.17718732357 32497.005401074886 495010.94816535711 27081.543903946877 9321.0161291360855 51063.764539659023 43267.564334213734 50067.605054795742 6452.0474892556667 2099.3957939147949 4027.1963194608688 93908.083490729332 4523.7677790522575 2859.2490845322609 79536.781060874462 2899.7507469058037 12750.894206106663 4122.1806577444077 2603.9319178462029
leaf_count=22127 13242 30634 30744 169930 106288 20581 7636 45191 202497 7669 248234 538925 34001 507260 28370 9847 52912 45034 51756 7000 2318 4349 96999 4712 3216 82086 3001 13198 4480 2809
internal_value=0 0.000209657 -0.00137964 0.000340728 0.000366091 -0.000502297 0.000124457 -0.00118485 -0.00039081 -0.000275696 0.000541632 0.000448846 0.000148018 0.000192767 0.000593118 9.82291e-05 0.000872574 -0.000707483 -0.000980361 -0.00121609 -0.00203398 -0.000985128 -0.000921253 -0.00237489 -0.00291404 -0.00123692 -0.00191869 -8.34695e-05 -0.00301728 -0.00200612
internal_weight=0 2.04959e+06 278989 1.73092e+06 1.70318e+06 318664 716674 247562 297043 267555 986503 770483 709405 676908 129308 547600 216020 52588.6 57343.9 27747 21620.8 194600 186049 8550.96 31427 92140.6 52962 210212 9625.86 5503.68
internal_count=2397046 2106217 290829 1777564 1748437 328653 738436 256869 305754 275120 1010001 787159 730800 696799 134658 562141 222842 54881 59425 29127 22899 201388 192327 9061 33960 95328 55481 215695 10290 5810
shrinkage=0.1


Tree=22
num_leaves=31
num_cat=0
split_feature=27 26 30 14 43 27 33 30 29 44 29 27 28 40 26 29 0 0 1 33 16 26 33 27 26 1 30 30 30 33
split_gain=50.432 14.1165 11.9724 5.216 4.62844 3.97309 3.91804 3.70869 3.40535 3.3754 2.76157 1.78951 1.99031 1.78063 1.72608 1.43589 1.39792 1.5817 2.60892 1.37012 1.55818 1.33738 1.33708 1.31099 1.29184 1.28943 1.20194 1.18441 1.18148 1.15525
threshold=0.56528144477579356 0.66454000247566059 0.99061831909614273 -0.18347966028292159 -4.581606702040256 1.2318407373339155 0.13234668081854492 2.4477647714642203 1.868314563532834 0.76559750783343916 -0.0080940256869587984 2.6667200497462349 2.1642282200869425 -0.30450341957495058 1.1306353813772165 2.044181096388598 11.500000000000002 1.5000000000000002 14.500000000000002 -0.015524046509550748 -0.76090294047239782 4.2177727756672647 -5.4078117301553439 -3.0352487887441488 1.621065294869356 25.500000000000004 -0.96981625318708564 3.5331113624341297 1.2262942281480591 -0.17681641038070531
decision_type=2 2 2 2 2 2 2 2 2 2 2 2 2 2 2 2 2 2 2 2 2 2 2 2 2 2 2 2 2 2
left_child=1 3 5 19 -5 24 9 11 14 13 -8 12 16 -6 -3 -13 17 18 -4 20 23 -9 25 -1 -2 -15 -21 -10 -12 -24
right_child=2 8 7 4 6 -7 10 21 27 -11 28 15 -14 22 -16 -17 -18 -19 -20 26 -22 -23 29 -25 -26 -27 -28 -29 -30 -31
leaf_value=0.051111777887545562 -0.00032893603846071416 -0.00032361870198166476 -0.0003894261071447042 -0.0012462423932922827 0.00060238942846389777 -0.0010868171051758243 0.00016039557008897364 -0.0026205020290627399 -0.0020789018549711978 -0.00038804725110929924 -0.00033321208527762556 -0.0029535879405806439 -0.00017852707724677535 -0.00019184948333591075 -0.0011042335583562911 -0.0010315705519766017 -0.003063400822554995 -0.0010984205345805455 -0.0034456769361400812 0.00095337920840791828 0.0010175228538938754 -0.004729622048842537 0.0005316112455768582 0.0069234212785815076 -0.0012460338923281303 -0.0026268460663192296 0.0004445006873895793 -0.0053893054044350953 -0.0014624137420047837 0.00022733858891940857
leaf_weight=11.202558994293215 235748.98918372393 89914.097865223885 4280.8269224762917 20412.262013316154 349723.7730358243 120456.59629762173 286581.00394946337 17424.896671950817 8691.2311517596245 53995.896890461445 89717.966070055962 13206.240579485893 13165.541794300079 13351.083167850971 41354.007066428661 5508.1171122193336 5445.7549706101418 43056.462971627712 8036.733867764473 61168.177117347717 88063.256365716457 3633.3044651150703 198894.43680202961 16.75690770149231 16430.017929553986 2597.8602210879326 192435.70718628168 1234.2743898034096 10332.985368311405 334871.43624097109
leaf_count=21 242048 92333 4464 21450 358078 124450 292672 18824 9221 56189 92199 14071 13808 14038 42835 5765 5848 45119 8641 62524 90735 4032 205588 20 17007 2842 196945 1373 10898 343046
internal_value=0 0.000256261 -0.000888484 0.000335962 0.000248234 -0.000614362 0.000270998 -0.00178643 -0.000704582 0.000379885 2.48327e-06 -0.00151429 -0.00129331 0.000425986 -0.000569539 -0.00238789 -0.00153463 -0.00138428 -0.00238351 0.000685258 0.00102502 -0.0029844 0.000313759 0.0246284 -0.000388687 -0.000588476 0.00056724 -0.00249056 -0.000449833 0.000340718
internal_weight=0 1.84337e+06 486393 1.70217e+06 1.36048e+06 372636 1.34007e+06 113758 141194 953434 386632 92699.7 73985.3 899439 131268 18714.4 60819.8 55374 12317.6 341695 88091.2 21058.2 549715 27.9595 252179 15948.9 253604 9925.51 100051 533766
internal_count=2397084 1893007 504077 1747245 1397000 383505 1375550 120572 145762 979781 395769 97716 77880 923592 135168 19836 64072 58224 13105 350245 90776 22856 565514 41 259055 16880 259469 10594 103097 548634
shrinkage=0.1


Tree=23
num_leaves=31
num_cat=0
split_feature=34 30 43 40 30 30 0 30 34 1 30 30 34 14 34 30 1 0 0 1 0 0 0 30 30 1 30 35 9 34
split_gain=33.7854 11.4202 6.69892 6.71838 4.58795 3.4264 3.26805 3.13615 2.73255 2.67679 2.56211 2.3662 2.28442 1.85584 1.74802 2.29866 1.53733 3.61534 2.852 3.01462 2.65622 1.97046 1.81268 1.46044 1.44566 1.33004 1.30147 1.2809 1.21177 1.9158
threshold=0.340653240857131 0.56401084693674486 -4.581606702040256 -1.0000000180025095e-35 2.4477647714642203 1.4968630622060484 11.500000000000002 -0.41503390105994015 -0.37433376169898697 18.500000000000004 -1.541814157020047 1.5919571649854143 -0.010055324950835798 -0.18435980103750918 0.07363931681692551 -0.88412582689029107 16.500000000000004 1.5000000000000002 9.5000000000000018 25.500000000000004 10.500000000000002 9.5000000000000018 10.500000000000002 4.7929916369618502 3.9823294719019944 6.5000000000000009 -0.31351110164986956 0.8036701195522592 -0.78109771593479127 -1.3806042372960861
decision_type=2 2 2 2 2 2 2 2 2 2 2 2 2 2 2 2 2 2 2 2 2 2 2 2 2 2 2 2 2 2
left_child=2 7 11 13 6 10 16 -2 -7 25 -5 -1 -12 -4 -15 -16 20 -18 -19 -20 21 -3 -21 -6 -10 -8 -14 -25 29 -13
right_child=1 4 3 5 23 8 9 -9 24 -11 12 28 26 14 15 -17 17 18 19 22 -22 -23 -24 27 -26 -27 -28 -29 -30 -31
leaf_value=-0.00076675445479583101 0.00014847559157805571 -0.00067521202601544459 0.00070885918302225571 -0.00095666098999873926 -0.0024738571295317485 1.469156120945386e-05 -0.0044204055284494418 -0.00050076837581034743 -0.00096157215475416104 0.00074531097443902806 0.00038924859987217632 0.042665046089080283 0.00028233325858785996 0.00050115745339472336 0.00068665305396329332 9.8362277849274138e-05 -0.0027265478943882598 -0.00053370755154928966 -0.00085024349459675254 -0.00098936090481498715 0.00098366757717226758 -0.0022747985739647778 -0.0044107277313272302 -0.0050528746375788636 -0.003649160261749892 -0.0022929109180453901 -0.00014453750993550748 -0.016351265810675222 -0.0030089552060807087 6.0651753858985787e-05
leaf_weight=23660.0794018507 100248.08817642927 64182.635075926781 184453.21376186609 21886.951348781586 19716.432939827442 43948.463231384754 4688.6432597637177 288571.70837146044 45188.746747910976 2131.8937005996704 230369.44299548864 14.872676491737364 101510.33195787668 427909.00564962626 82677.873839497566 337738.16936594248 14324.09944075346 44024.922377467155 9552.3716049194336 2116.9176532626152 8676.7806553840637 8751.0847128033638 5767.440803706646 1029.4613047838211 2094.1883234977722 7872.3130241036415 240974.79518324137 111.17837935686111 6681.6258401274681 36.352951169013977
leaf_count=24594 102152 66967 188813 23027 21311 46161 5119 296873 47410 2228 236883 26 103440 438533 84217 344848 15230 45713 9975 2208 9017 9304 6282 1165 2284 8319 247765 146 7251 40
internal_value=0 -0.000645485 0.000234227 0.000260251 -0.00127444 1.76594e-05 -0.00110468 -0.000333376 -0.000552974 -0.00253098 0.000105193 -0.00123744 0.000145763 0.000421381 0.000358874 0.000214054 -0.000971531 -0.00129585 -0.00096241 -0.00204481 -0.000670364 -0.000867141 -0.0034921 -0.00267513 -0.00108061 -0.00308704 -1.80158e-05 -0.00615413 -0.00289149 0.0124303
internal_weight=0 581766 1.74914e+06 1.71875e+06 192946 685973 172089 388820 91231.4 14692.8 594742 30392.9 572855 1.03278e+06 848325 420416 157396 75785.8 61461.7 17436.7 81610.5 72933.7 7884.36 20857.1 47282.9 12561 342485 1140.64 6732.85 51.2256
internal_count=2397301 602009 1795292 1763381 202984 706970 180362 399025 95855 15666 611115 31911 588088 1056411 867598 429065 164696 79408 64178 18465 85288 76271 8490 22622 49694 13438 351205 1311 7317 66
shrinkage=0.1


Tree=24
num_leaves=31
num_cat=0
split_feature=27 26 27 32 27 29 26 32 0 26 0 44 32 0 29 30 0 28 30 39 32 29 27 32 26 29 30 28 30 43
split_gain=35.099 10.8752 5.06742 5.98923 4.88316 4.82803 2.99981 2.85751 2.66623 2.64761 2.53397 2.52263 2.1589 2.12919 1.97466 1.7766 1.64726 1.62956 1.60335 1.53737 1.68408 1.86146 1.5719 1.35749 1.38151 1.20993 1.16446 1.15785 1.12584 1.06851
threshold=0.99570698470806673 1.0678137933640957 0.14795841185221292 0.14220043419883518 2.6667200497462349 0.40045062746319277 0.13996985298653478 0.049886425549198955 11.500000000000002 3.4081932621933642 1.5000000000000002 0.53161857963693426 0.40406967581432424 1.5000000000000002 3.7684147406372959 2.7504397436477954 11.500000000000002 1.3859977205554339 -0.621172217382301 -0.51173997812996352 -0.27614140782957536 1.1395879977657353 -0.25777741307774077 0.67155479184836742 4.2177727756672647 -0.39521347845330779 1.0179917966002991 4.1009352309337768 1.4518234812421715 -0.32530460451307092
decision_type=2 2 2 2 2 2 2 2 2 2 2 2 2 2 2 2 2 2 2 2 2 2 2 2 2 2 2 2 2 2
left_child=1 2 3 6 9 25 11 10 15 12 26 19 13 28 -7 -3 -14 18 -9 -1 22 -22 -21 -6 -25 -5 -4 -26 -2 -23
right_child=4 8 7 5 23 14 -8 17 -10 -11 -12 -13 16 -15 -16 -17 -18 -19 -20 20 21 29 -24 24 27 -27 -28 -29 -30 -31
leaf_value=0.00067500564591933202 -0.001742992095829549 -0.00058892010181931756 -0.0012543196768866319 0.00033032081683554326 -0.0027725129411803615 -0.00076557870339687324 -0.00021425669855974885 0.00036030713250745101 -0.0023352166669584219 -0.0029097402516855444 -0.00031702550179956281 -7.5238669868001136e-06 -0.00040548133126525597 -0.00095433158313202454 -0.0044719924269686854 -0.0027989549003750642 -0.0019947733361191052 0.00099093295960374968 -9.784532501257841e-05 0.00081444014619613228 0.00034826205078780263 -0.0018338355410168188 -2.3303578534277224e-05 -0.00098148048049764825 -0.0017323442755730397 -0.00010121542110820327 -0.0034905079900090265 -0.004767473253419096 -0.0037444259923494366 -0.00017880957117144344
leaf_weight=351492.65316343307 13495.608836054802 84144.638708114624 9157.7223855853081 131904.0185161829 17535.219555318356 62752.713782548904 70996.115021824837 107002.30905264616 11009.084370851517 6317.3061909675598 123984.56289130449 104803.50220954418 100664.22305768728 104345.47213435173 1471.1177799105644 3801.7555679678917 6973.3883699178696 18653.795084357262 266951.03699249029 139065.19603925943 396679.16524076462 5579.727236866951 26697.424594283104 12911.563172698021 3275.4903240203857 128040.83306115866 3122.7215351462364 2039.5168534517288 3549.8737923502922 12965.302798509598
leaf_count=359823 14065 86831 9513 134401 18630 64977 72752 108892 11639 6736 127301 108385 104158 107821 1624 4085 7379 19372 274191 144125 405699 5904 27915 13538 3472 130741 3382 2264 3851 13522
internal_value=0 0.00015474 0.000206346 0.000304015 -0.00105564 -7.40665e-05 0.000414603 -5.81888e-05 -0.000868108 -0.000890199 -0.000452742 0.000457644 -0.000834494 -0.0011236 -0.000850478 -0.000684456 -0.000508445 7.87516e-05 3.32496e-05 0.000509926 0.000410054 0.000302482 0.000679515 -0.00214438 -0.00154006 0.000117759 -0.00182295 -0.00289701 -0.00215981 -0.000676765
internal_weight=0 2.06028e+06 1.96132e+06 1.43245e+06 271108 324169 1.10828e+06 528872 98955.5 235346 136265 1.03728e+06 229029 121391 64223.8 87946.4 107638 392607 373953 932479 580987 415224 165763 35761.8 18226.6 259945 12280.4 5315.01 17045.5 18545
internal_count=2396988 2115074 2012519 1469868 281914 331743 1138125 542651 102555 244010 140196 1065373 237274 125737 66601 90916 111537 402455 383083 956988 597165 425125 172040 37904 19274 265142 12895 5736 17916 19426
shrinkage=0.1


Tree=25
num_leaves=31
num_cat=0
split_feature=27 26 14 43 30 41 32 27 29 26 29 32 29 0 1 1 32 0 0 28 29 32 27 1 29 0 1 30 29 29
split_gain=28.561 9.18408 4.47565 3.87554 3.74813 3.30765 3.58631 3.35558 3.04927 2.19266 1.81722 2.62484 1.60164 1.54205 1.71874 1.78616 1.52847 1.4334 1.41255 1.39076 1.25031 1.27852 1.22461 1.20603 1.45501 1.18443 1.16713 1.15667 1.1419 1.11114
threshold=1.048418022845347 1.1640912041024132 -0.18392332796575181 -4.581606702040256 1.7032022413700778 0.93799491509166033 -0.10366917373187233 -0.15814601175162302 -0.56776627957341941 2.971999839950072 2.3914065020655282 -1.190272232554455 4.3030632469998071 9.5000000000000018 26.500000000000004 5.5000000000000009 -0.6916644719306142 1.5000000000000002 11.500000000000002 1.3859977205554339 -1.3191009418185657 -0.54474142821084437 0.49006152225406885 14.500000000000002 1.7210022794216073 10.500000000000002 8.5000000000000018 3.9823294719019944 0.64986328466536902 0.46043911712458607
decision_type=2 2 2 2 2 2 2 2 2 2 2 2 2 2 2 2 2 2 2 2 2 2 2 2 2 2 2 2 2 2
left_child=1 2 -1 23 13 6 7 16 22 18 20 -12 -13 17 15 -15 -5 26 -3 29 -7 -22 -8 24 -4 -16 -2 -6 -18 -10
right_child=4 9 3 5 27 10 8 -9 19 -11 11 12 -14 14 25 -17 28 -19 -20 -21 21 -23 -24 -25 -26 -27 -28 -29 -30 -31
leaf_value=0.00051836447857924535 0.00071437489255531594 -0.00062815202066621113 0.00011330906762413844 0.0013146751309253257 -0.0017243634048559556 -0.0025318389618025476 0.00039018579329450466 -6.6294238306703702e-05 -2.4373238775273327e-06 -0.00330859551514401 0.00078325021302850422 -0.001196323745732422 -0.0037070968137678934 -0.002203098118397136 -0.00024671149617524644 -0.00065265360656721952 0.00064268449344841118 -0.00055488636216684598 -0.0019573138216560336 0.00089786172611034493 0.00065121313947269933 -0.00017204809540194405 -0.00021205513525018275 -0.0017018183052103281 -0.0020101786138086676 -0.0032481229769313041 -0.0016167710785425062 -0.0038385506157645509 7.4225491770674233e-05 -0.00037824130843759353
leaf_weight=324159.04514810443 2381.7860156297684 73241.551002383232 12445.785682916641 28972.905545383692 38097.132307529449 2120.3809224963188 325086.72802984715 92786.720193743706 551376.19841241837 3558.7851335406303 6132.6414329409599 15918.478667318821 3023.2078255414963 9987.5934471487999 1646.0965068936348 29019.703582465649 212575.30283546448 140340.03362649679 8975.3552020788193 15655.610620319843 20908.865164339542 192872.11099851131 37677.506040930748 13683.52067899704 4356.1635485589504 6532.5696650743484 21854.968558609486 2776.3466711044312 42382.315631866455 91771.460652470589
leaf_count=331841 2458 75696 12830 30296 40597 2330 331270 96054 563106 3818 6585 16833 3306 10536 1695 30070 217687 144411 9443 16208 21777 198997 38513 14477 4629 6994 22790 3088 43884 94895
internal_value=0 0.000134745 0.000178331 0.000112318 -0.000991245 0.000133094 0.000192063 0.000455789 9.48106e-05 -0.000878442 -0.00020908 -0.00101489 -0.00159706 -0.000822023 -0.00132599 -0.00104964 0.000626402 -0.00067753 -0.000773252 -3.33925e-05 -0.000115495 -9.1529e-05 0.000327636 -0.00100485 -0.000437238 -0.00264404 -0.00138769 -0.00186797 0.000548188 -5.60612e-05
internal_weight=0 2.07968e+06 1.9939e+06 1.66975e+06 252636 1.63926e+06 1.39828e+06 376717 1.02157e+06 85775.7 240976 25074.3 18941.7 211763 47186 39007.3 283931 164577 82216.9 658803 215901 213781 362764 30485.5 16801.9 8178.67 24236.8 40873.5 254958 643148
internal_count=2397114 2134475 2045518 1713677 262639 1681741 1431913 387921 1043992 88957 249828 26724 20139 218954 49295 40606 291867 169659 85139 674209 223104 220774 369783 31936 17459 8689 25248 43685 261571 658001
shrinkage=0.1


Tree=26
num_leaves=31
num_cat=0
split_feature=27 32 27 26 14 33 32 30 0 32 32 33 30 28 33 32 32 33 32 1 33 32 30 33 30 32 28 0 0 33
split_gain=23.3643 7.6572 6.18973 3.82466 2.92932 2.55792 2.81787 2.11596 1.90068 1.88304 1.80897 1.6933 1.80403 1.66498 1.76622 3.42723 1.52556 1.39867 2.18275 1.36227 1.31507 1.26158 1.24504 1.11203 1.10355 1.09467 1.07282 1.05335 1.05143 1.0493
threshold=0.55278455985354269 0.56669695909606033 1.9537451486497719 0.5914671670227164 -0.16829576064129362 0.9254014276297301 0.1133822546788545 1.7032022413700778 1.5000000000000002 1.1850503190276065 -1.5268372965019481 0.036381679779027058 -0.98462696319269949 2.2942508916440407 0.55776923326520489 0.48210858660775352 0.015909688360233206 -5.4078117301553439 -0.64620754852222806 25.500000000000004 0.17393526288980424 0.74355740641108703 2.2286816517301724 0.55776923326520489 0.41758325793671441 0.27339960435953109 1.0516881781098915 11.500000000000002 9.5000000000000018 0.099055093458362123
decision_type=2 2 2 2 2 2 2 2 2 2 2 2 2 2 2 2 2 2 2 2 2 2 2 2 2 2 2 2 2 2
left_child=1 3 5 4 11 6 8 17 -2 27 -9 16 -13 14 25 28 -1 19 -19 -6 -5 -7 -4 -22 29 -8 -14 -3 -16 -20
right_child=2 9 22 20 7 21 13 10 -10 -11 -12 12 26 -15 15 -17 -18 18 24 -21 23 -23 -24 -25 -26 -27 -28 -29 -30 -31
